{"learner":{"attributes":{},"feature_names":[],"feature_types":[],"gradient_booster":{"model":{"gbtree_model_param":{"num_parallel_tree":"1","num_trees":"400"},"iteration_indptr":[0,1,2,3,4,5,6,7,8,9,10,11,12,13,14,15,16,17,18,19,20,21,22,23,24,25,26,27,28,29,30,31,32,33,34,35,36,37,38,39,40,41,42,43,44,45,46,47,48,49,50,51,52,53,54,55,56,57,58,59,60,61,62,63,64,65,66,67,68,69,70,71,72,73,74,75,76,77,78,79,80,81,82,83,84,85,86,87,88,89,90,91,92,93,94,95,96,97,98,99,100,101,102,103,104,105,106,107,108,109,110,111,112,113,114,115,116,117,118,119,120,121,122,123,124,125,126,127,128,129,130,131,132,133,134,135,136,137,138,139,140,141,142,143,144,145,146,147,148,149,150,151,152,153,154,155,156,157,158,159,160,161,162,163,164,165,166,167,168,169,170,171,172,173,174,175,176,177,178,179,180,181,182,183,184,185,186,187,188,189,190,191,192,193,194,195,196,197,198,199,200,201,202,203,204,205,206,207,208,209,210,211,212,213,214,215,216,217,218,219,220,221,222,223,224,225,226,227,228,229,230,231,232,233,234,235,236,237,238,239,240,241,242,243,244,245,246,247,248,249,250,251,252,253,254,255,256,257,258,259,260,261,262,263,264,265,266,267,268,269,270,271,272,273,274,275,276,277,278,279,280,281,282,283,284,285,286,287,288,289,290,291,292,293,294,295,296,297,298,299,300,301,302,303,304,305,306,307,308,309,310,311,312,313,314,315,316,317,318,319,320,321,322,323,324,325,326,327,328,329,330,331,332,333,334,335,336,337,338,339,340,341,342,343,344,345,346,347,348,349,350,351,352,353,354,355,356,357,358,359,360,361,362,363,364,365,366,367,368,369,370,371,372,373,374,375,376,377,378,379,380,381,382,383,384,385,386,387,388,389,390,391,392,393,394,395,396,397,398,399,400],"tree_info":[0,0,0,0,0,0,0,0,0,0,0,0,0,0,0,0,0,0,0,0,0,0,0,0,0,0,0,0,0,0,0,0,0,0,0,0,0,0,0,0,0,0,0,0,0,0,0,0,0,0,0,0,0,0,0,0,0,0,0,0,0,0,0,0,0,0,0,0,0,0,0,0,0,0,0,0,0,0,0,0,0,0,0,0,0,0,0,0,0,0,0,0,0,0,0,0,0,0,0,0,0,0,0,0,0,0,0,0,0,0,0,0,0,0,0,0,0,0,0,0,0,0,0,0,0,0,0,0,0,0,0,0,0,0,0,0,0,0,0,0,0,0,0,0,0,0,0,0,0,0,0,0,0,0,0,0,0,0,0,0,0,0,0,0,0,0,0,0,0,0,0,0,0,0,0,0,0,0,0,0,0,0,0,0,0,0,0,0,0,0,0,0,0,0,0,0,0,0,0,0,0,0,0,0,0,0,0,0,0,0,0,0,0,0,0,0,0,0,0,0,0,0,0,0,0,0,0,0,0,0,0,0,0,0,0,0,0,0,0,0,0,0,0,0,0,0,0,0,0,0,0,0,0,0,0,0,0,0,0,0,0,0,0,0,0,0,0,0,0,0,0,0,0,0,0,0,0,0,0,0,0,0,0,0,0,0,0,0,0,0,0,0,0,0,0,0,0,0,0,0,0,0,0,0,0,0,0,0,0,0,0,0,0,0,0,0,0,0,0,0,0,0,0,0,0,0,0,0,0,0,0,0,0,0,0,0,0,0,0,0,0,0,0,0,0,0,0,0,0,0,0,0,0,0,0,0,0,0,0,0,0,0,0,0,0,0,0,0,0,0,0,0,0,0,0,0,0,0,0,0,0,0,0,0,0,0,0,0,0,0,0,0,0,0,0,0,0,0,0,0],"trees":[{"base_weights":[-1.5554074E-2,5.4982257E-1,-8.9693433E-1,3.6489224E-1,9.988099E-1,-1.2303157E0,-1.0432446E-1,4.6336865E-1,4.949571E-2,9.4579995E-1,1.3959289E0,-1.2505615E0,-1.3650958E-1,-3.9749792E-1,1.5031955E-1,1.5726315E-2,2.7206693E-2,-2.4109555E-3,5.0144073E-2,4.8015486E-2,-3.208204E-3,7.311713E-2,-1.9541448E-2,-3.5674628E-2,-6.4320646E-2,-4.2272415E-2,2.934578E-2,-4.3286502E-2,9.362327E-4,1.7933859E-2,-1.0392494E-2],"categories":[],"categories_nodes":[],"categories_segments":[],"categories_sizes":[],"default_left":[0,0,0,0,0,0,0,0,0,0,0,0,0,0,0,0,0,0,0,0,0,0,0,0,0,0,0,0,0,0,0],"id":0,"left_children":[1,3,5,7,9,11,13,15,17,19,21,23,25,27,29,-1,-1,-1,-1,-1,-1,-1,-1,-1,-1,-1,-1,-1,-1,-1,-1],"loss_changes":[1.1946295E3,1.2090384E2,2.474267E2,3.2154846E1,7.636902E0,1.4431335E1,2.0849205E1,9.318298E0,2.3117384E1,5.608124E0,6.2683487E0,1.1545044E1,7.217542E0,2.5296906E1,1.125041E1,0E0,0E0,0E0,0E0,0E0,0E0,0E0,0E0,0E0,0E0,0E0,0E0,0E0,0E0,0E0,0E0],"parents":[2147483647,0,0,1,1,2,2,3,3,4,4,5,5,6,6,7,7,8,8,9,9,10,10,11,11,12,12,13,13,14,14],"right_children":[2,4,6,8,10,12,14,16,18,20,22,24,26,28,30,-1,-1,-1,-1,-1,-1,-1,-1,-1,-1,-1,-1,-1,-1,-1,-1],"split_conditions":[1.779631E-1,8.463517E-1,8.463517E-1,-3.1001505E-1,1.4104956E0,3.5053048E0,9.0042424E-1,-1.2162602E0,2.1015687E0,1.3651894E0,1.6008328E0,-1.5100803E0,2.0099993E-1,3.2210697E-3,6.978324E-1,1.5726315E-2,2.7206693E-2,-2.4109555E-3,5.0144073E-2,4.8015486E-2,-3.208204E-3,7.311713E-2,-1.9541448E-2,-3.5674628E-2,-6.4320646E-2,-4.2272415E-2,2.934578E-2,-4.3286502E-2,9.362327E-4,1.7933859E-2,-1.0392494E-2],"split_indices":[3,4,4,3,1,6,3,3,6,1,2,1,5,8,6,0,0,0,0,0,0,0,0,0,0,0,0,0,0,0,0],"split_type":[0,0,0,0,0,0,0,0,0,0,0,0,0,0,0,0,0,0,0,0,0,0,0,0,0,0,0,0,0,0,0],"sum_hessian":[2.3953633E3,1.459511E3,9.358524E2,1.0350173E3,4.2449362E2,6.583783E2,2.7747415E2,7.883891E2,2.4662827E2,3.7748602E2,4.7007595E1,6.4627277E2,1.2105488E1,1.2871857E2,1.487556E2,2.7903998E2,5.0934912E2,2.245618E2,2.2066463E1,3.7218808E2,5.297949E0,4.5498005E1,1.5095898E0,4.1749336E1,6.0452344E2,6.0287695E0,6.0767183E0,6.0066463E1,6.865211E1,9.404529E1,5.471031E1],"tree_param":{"num_deleted":"0","num_feature":"16029","num_nodes":"31","size_leaf_vector":"1"}},{"base_weights":[5.5984003E-3,5.4370505E-1,-8.3297396E-1,3.622621E-1,9.3673545E-1,-1.1632046E0,-4.4442534E-2,4.2423725E-1,-2.6287237E-2,8.82386E-1,1.3245977E0,-1.1869972E0,2.3541704E-2,-3.2623088E-1,2.0285138E-1,-4.0086757E-2,2.1541229E-2,2.157712E-3,-7.022363E-2,4.467539E-2,-3.9332457E-2,7.129922E-2,-2.2095783E-2,-3.2722786E-2,-6.11426E-2,-3.4313377E-2,5.76089E-2,-2.1752385E-2,6.1481237E-2,2.8799469E-2,1.555902E-3],"categories":[],"categories_nodes":[],"categories_segments":[],"categories_sizes":[],"default_left":[0,0,0,0,0,0,0,0,0,0,0,0,0,0,0,0,0,0,0,0,0,0,0,0,0,0,0,0,0,0,0],"id":1,"left_children":[1,3,5,7,9,11,13,15,17,19,21,23,25,27,29,-1,-1,-1,-1,-1,-1,-1,-1,-1,-1,-1,-1,-1,-1,-1,-1],"loss_changes":[1.0950667E3,1.0507602E2,2.4695276E2,2.4403717E1,8.65979E0,1.8904541E1,1.9649857E1,7.4010773E0,1.3486537E1,8.34964E0,1.05359955E1,1.1714294E1,1.210273E1,2.2838753E1,9.612982E0,0E0,0E0,0E0,0E0,0E0,0E0,0E0,0E0,0E0,0E0,0E0,0E0,0E0,0E0,0E0,0E0],"parents":[2147483647,0,0,1,1,2,2,3,3,4,4,5,5,6,6,7,7,8,8,9,9,10,10,11,11,12,12,13,13,14,14],"right_children":[2,4,6,8,10,12,14,16,18,20,22,24,26,28,30,-1,-1,-1,-1,-1,-1,-1,-1,-1,-1,-1,-1,-1,-1,-1,-1],"split_conditions":[1.779631E-1,7.8322756E-1,8.463517E-1,-1.1355632E-1,1.3944397E0,3.5053048E0,9.0042424E-1,-1.7152712E0,1.5281771E0,3.335999E0,1.5127349E0,-1.5100803E0,5.464953E-1,1.6000657E0,-7.547911E-1,-4.0086757E-2,2.1541229E-2,2.157712E-3,-7.022363E-2,4.467539E-2,-3.9332457E-2,7.129922E-2,-2.2095783E-2,-3.2722786E-2,-6.11426E-2,-3.4313377E-2,5.76089E-2,-2.1752385E-2,6.1481237E-2,2.8799469E-2,1.555902E-3],"split_indices":[3,4,4,3,1,6,3,10,14,7,10,1,14,10,14,0,0,0,0,0,0,0,0,0,0,0,0,0,0,0,0],"split_type":[0,0,0,0,0,0,0,0,0,0,0,0,0,0,0,0,0,0,0,0,0,0,0,0,0,0,0,0,0,0,0],"sum_hessian":[2.4247834E3,1.4772152E3,9.475682E2,1.01196295E3,4.6525223E2,6.6753485E2,2.8003333E2,8.7267584E2,1.3928711E2,4.1094357E2,5.4308678E1,6.5441455E2,1.3120329E1,1.3073883E2,1.4929448E2,4.0188074E0,8.6865704E2,1.3352785E2,5.7592683E0,4.086849E2,2.258658E0,5.1543194E1,2.765482E0,4.24954E1,6.119191E2,8.295295E0,4.8250337E0,1.2286595E2,7.8728833E0,4.6312923E1,1.0298155E2],"tree_param":{"num_deleted":"0","num_feature":"16029","num_nodes":"31","size_leaf_vector":"1"}},{"base_weights":[3.8454875E-3,5.140861E-1,-7.727807E-1,3.431519E-1,9.168963E-1,-1.0726995E0,-6.2102158E-2,4.4526157E-1,1.5473476E-1,9.3698686E-1,1.7242959E-1,-1.0880986E0,-1.4185552E-1,3.1470144E-1,-2.2374511E-1,1.3061659E-2,2.7368749E-2,1.3984017E-2,-2.9630645E-3,4.935658E-2,3.259187E-2,2.6937226E-2,-6.69277E-2,-2.9247573E-2,-5.6095798E-2,5.1103354E-2,-3.2361E-2,2.1248056E-2,-3.3453684E-2,-2.4535062E-2,8.042398E-4],"categories":[],"categories_nodes":[],"categories_segments":[],"categories_sizes":[],"default_left":[0,0,0,0,0,0,0,0,0,0,0,0,0,0,0,0,0,0,0,0,0,0,0,0,0,0,0,0,0,0,0],"id":2,"left_children":[1,3,5,7,9,11,13,15,17,19,21,23,25,27,29,-1,-1,-1,-1,-1,-1,-1,-1,-1,-1,-1,-1,-1,-1,-1,-1],"loss_changes":[9.5526746E2,9.9856995E1,2.0366437E2,1.9612816E1,6.312256E0,9.479614E0,1.7412434E1,1.2314468E1,9.671093E0,5.3797607E0,7.694854E0,1.0591003E1,7.771527E0,9.601E0,1.2802166E1,0E0,0E0,0E0,0E0,0E0,0E0,0E0,0E0,0E0,0E0,0E0,0E0,0E0,0E0,0E0,0E0],"parents":[2147483647,0,0,1,1,2,2,3,3,4,4,5,5,6,6,7,7,8,8,9,9,10,10,11,11,12,12,13,13,14,14],"right_children":[2,4,6,8,10,12,14,16,18,20,22,24,26,28,30,-1,-1,-1,-1,-1,-1,-1,-1,-1,-1,-1,-1,-1,-1,-1,-1],"split_conditions":[1.5895095E-1,8.463517E-1,8.463517E-1,-5.2548593E-1,1.0825193E-1,3.5053048E0,-7.68329E-1,-1.279634E0,4.4093615E-1,1.6038404E0,9.7975963E-1,-1.5100803E0,-1.1619831E0,1.2904962E0,-3.032094E-2,1.3061659E-2,2.7368749E-2,1.3984017E-2,-2.9630645E-3,4.935658E-2,3.259187E-2,2.6937226E-2,-6.69277E-2,-2.9247573E-2,-5.6095798E-2,5.1103354E-2,-3.2361E-2,2.1248056E-2,-3.3453684E-2,-2.4535062E-2,8.042398E-4],"split_indices":[3,4,4,3,3,6,14,3,14,4,11,1,11,8,8,0,0,0,0,0,0,0,0,0,0,0,0,0,0,0,0],"split_type":[0,0,0,0,0,0,0,0,0,0,0,0,0,0,0,0,0,0,0,0,0,0,0,0,0,0,0,0,0,0,0],"sum_hessian":[2.4086682E3,1.4538392E3,9.548291E2,1.02200073E3,4.3183847E2,6.711026E2,2.837265E2,6.6192035E2,3.600804E2,4.2023907E2,1.15994005E1,6.6001495E2,1.1087662E1,8.489112E1,1.9883539E2,2.3748462E2,4.244357E2,2.2714856E2,1.3293185E2,3.5529688E2,6.494219E1,9.853917E0,1.7454838E0,4.271913E1,6.172958E2,3.047174E0,8.040487E0,7.684636E1,8.044763E0,9.360124E1,1.05234146E2],"tree_param":{"num_deleted":"0","num_feature":"16029","num_nodes":"31","size_leaf_vector":"1"}},{"base_weights":[8.982284E-3,-2.0434132E-1,5.1014966E-1,-2.1965624E-1,6.3156205E-1,6.6445374E-1,4.4143626E-1,1.2084552E-1,-2.4169278E-1,1.3487315E0,8.315774E-2,1.0255713E0,5.611555E-1,3.8927868E-1,8.032488E-1,1.2050058E-2,-4.8410293E-2,1.440071E-3,-1.3355221E-2,7.3081486E-2,-3.579234E-4,-3.541862E-2,2.274624E-2,-4.0558513E-2,5.6741428E-2,3.23038E-2,-7.7470466E-3,1.2994972E-2,2.7914857E-2,5.097502E-2,1.4207794E-2],"categories":[],"categories_nodes":[],"categories_segments":[],"categories_sizes":[],"default_left":[0,0,0,0,0,0,0,0,0,0,0,0,0,0,0,0,0,0,0,0,0,0,0,0,0,0,0,0,0,0,0],"id":3,"left_children":[1,3,5,7,9,11,13,15,17,19,21,23,25,27,29,-1,-1,-1,-1,-1,-1,-1,-1,-1,-1,-1,-1,-1,-1,-1,-1],"loss_changes":[2.569679E2,2.1722214E1,7.31546E0,1.2457848E1,1.19195175E1,7.598503E0,9.113457E0,1.3495334E1,1.0703407E1,2.029625E0,5.737101E0,1.0458931E1,1.05957985E1,9.443886E0,6.6693115E0,0E0,0E0,0E0,0E0,0E0,0E0,0E0,0E0,0E0,0E0,0E0,0E0,0E0,0E0,0E0,0E0],"parents":[2147483647,0,0,1,1,2,2,3,3,4,4,5,5,6,6,7,7,8,8,9,9,10,10,11,11,12,12,13,13,14,14],"right_children":[2,4,6,8,10,12,14,16,18,20,22,24,26,28,30,-1,-1,-1,-1,-1,-1,-1,-1,-1,-1,-1,-1,-1,-1,-1,-1],"split_conditions":[8.463517E-1,3.5053048E0,-7.008224E-1,-1.5100803E0,-8.695675E-1,-1.005304E0,1.3944397E0,6.5697944E-1,-1.4516615E0,1.499797E0,-8.209389E-1,-1.7023333E0,1.2904962E0,2.67462E-1,5.960878E-1,1.2050058E-2,-4.8410293E-2,1.440071E-3,-1.3355221E-2,7.3081486E-2,-3.579234E-4,-3.541862E-2,2.274624E-2,-4.0558513E-2,5.6741428E-2,3.23038E-2,-7.7470466E-3,1.2994972E-2,2.7914857E-2,5.097502E-2,1.4207794E-2],"split_indices":[4,6,14,1,11,10,1,4,10,10,10,10,8,10,2,0,0,0,0,0,0,0,0,0,0,0,0,0,0,0,0],"split_type":[0,0,0,0,0,0,0,0,0,0,0,0,0,0,0,0,0,0,0,0,0,0,0,0,0,0,0,0,0,0,0],"sum_hessian":[2.4015974E3,1.6849744E3,7.166229E2,1.6553827E3,2.9591696E1,2.1812566E2,4.9849725E2,1.0034828E2,1.5550344E3,1.219043E1,1.7401266E1,4.6530975E1,1.7159468E2,4.3750415E2,6.0993107E1,9.107827E1,9.27001E0,1.3353094E2,1.4215034E3,1.1181422E1,1.0090065E0,5.2717505E0,1.2129517E1,2.2517657E0,4.427921E1,1.5349034E2,1.8104334E1,2.4924855E2,1.882556E2,4.237563E1,1.861748E1],"tree_param":{"num_deleted":"0","num_feature":"16029","num_nodes":"31","size_leaf_vector":"1"}},{"base_weights":[1.5165113E-2,4.9757186E-1,-7.311572E-1,3.5740817E-1,8.364497E-1,-1.0221379E0,-4.464288E-2,4.3884972E-1,1.7268981E-1,7.15873E-1,9.9873626E-1,-1.0432209E0,4.1596383E-2,-3.538557E-1,2.0403184E-1,1.3501382E-2,2.6431968E-2,1.2049186E-2,-1.2882958E-2,3.308627E-2,5.4311324E-2,5.223884E-2,8.134394E-3,-3.1381812E-2,-5.3422302E-2,-3.0148698E-2,4.8352797E-2,-4.1729372E-2,2.8858965E-3,2.0754898E-2,-7.690893E-3],"categories":[],"categories_nodes":[],"categories_segments":[],"categories_sizes":[],"default_left":[0,0,0,0,0,0,0,0,0,0,0,0,0,0,0,0,0,0,0,0,0,0,0,0,0,0,0,0,0,0,0],"id":4,"left_children":[1,3,5,7,9,11,13,15,17,19,21,23,25,27,29,-1,-1,-1,-1,-1,-1,-1,-1,-1,-1,-1,-1,-1,-1,-1,-1],"loss_changes":[8.659851E2,6.909384E1,1.885994E2,1.5497986E1,7.63501E0,1.4916504E1,2.1768356E1,1.0738266E1,9.420442E0,4.261551E0,6.734207E0,6.1470337E0,8.845209E0,2.500504E1,1.1923765E1,0E0,0E0,0E0,0E0,0E0,0E0,0E0,0E0,0E0,0E0,0E0,0E0,0E0,0E0,0E0,0E0],"parents":[2147483647,0,0,1,1,2,2,3,3,4,4,5,5,6,6,7,7,8,8,9,9,10,10,11,11,12,12,13,13,14,14],"right_children":[2,4,6,8,10,12,14,16,18,20,22,24,26,28,30,-1,-1,-1,-1,-1,-1,-1,-1,-1,-1,-1,-1,-1,-1,-1,-1],"split_conditions":[1.779631E-1,8.463517E-1,8.463517E-1,-4.2408785E-1,6.978324E-1,3.5053048E0,9.0042424E-1,-4.7139207E-1,1.1757306E0,1.3944397E0,1.6008328E0,-1.5270389E0,5.464953E-1,3.2210697E-3,6.978324E-1,1.3501382E-2,2.6431968E-2,1.2049186E-2,-1.2882958E-2,3.308627E-2,5.4311324E-2,5.223884E-2,8.134394E-3,-3.1381812E-2,-5.3422302E-2,-3.0148698E-2,4.8352797E-2,-4.1729372E-2,2.8858965E-3,2.0754898E-2,-7.690893E-3],"split_indices":[3,4,4,3,6,6,3,11,11,1,2,1,14,8,6,0,0,0,0,0,0,0,0,0,0,0,0,0,0,0,0],"split_type":[0,0,0,0,0,0,0,0,0,0,0,0,0,0,0,0,0,0,0,0,0,0,0,0,0,0,0,0,0,0,0],"sum_hessian":[2.403297E3,1.4599501E3,9.4334705E2,1.0342339E3,4.257161E2,6.621882E2,2.8115887E2,7.168167E2,3.1741724E2,2.4734976E2,1.7836633E2,6.4933777E2,1.2850411E1,1.251362E2,1.5602269E2,2.5026921E2,4.665475E2,2.7432367E2,4.3093563E1,2.1823015E2,2.9119614E1,1.688199E2,9.54644E0,3.86392E1,6.1069855E2,7.7801204E0,5.0702915E0,5.7244694E1,6.789151E1,9.803809E1,5.798459E1],"tree_param":{"num_deleted":"0","num_feature":"16029","num_nodes":"31","size_leaf_vector":"1"}},{"base_weights":[2.5574758E-3,4.6428356E-1,-7.0839256E-1,3.2023853E-1,8.058572E-1,-9.8366785E-1,-7.788966E-2,4.0561128E-1,1.1117626E-1,7.4129087E-1,1.0606968E0,-5.433438E-1,-1.0136245E0,-1.8014136E-1,5.2335066E-1,1.2236371E-2,2.414574E-2,2.0404574E-3,3.7513368E-2,4.055036E-2,1.7752972E-2,-3.3568814E-3,5.641792E-2,-4.48829E-2,2.350227E-2,-5.1466804E-2,-6.2122284E-3,-7.0119984E-3,-7.1857356E-2,4.7210094E-2,-1.1770744E-2],"categories":[],"categories_nodes":[],"categories_segments":[],"categories_sizes":[],"default_left":[0,0,0,0,0,0,0,0,0,0,0,0,0,0,0,0,0,0,0,0,0,0,0,0,0,0,0,0,0,0,0],"id":5,"left_children":[1,3,5,7,9,11,13,15,17,19,21,23,25,27,29,-1,-1,-1,-1,-1,-1,-1,-1,-1,-1,-1,-1,-1,-1,-1,-1],"loss_changes":[7.88517E2,7.1394226E1,1.6407645E2,1.8266846E1,6.3104553E0,8.132263E0,1.783194E1,8.937309E0,1.3409662E1,9.067474E0,6.551964E0,1.6251675E1,8.468445E0,1.220355E1,1.3695424E1,0E0,0E0,0E0,0E0,0E0,0E0,0E0,0E0,0E0,0E0,0E0,0E0,0E0,0E0,0E0,0E0],"parents":[2147483647,0,0,1,1,2,2,3,3,4,4,5,5,6,6,7,7,8,8,9,9,10,10,11,11,12,12,13,13,14,14],"right_children":[2,4,6,8,10,12,14,16,18,20,22,24,26,28,30,-1,-1,-1,-1,-1,-1,-1,-1,-1,-1,-1,-1,-1,-1,-1,-1],"split_conditions":[1.779631E-1,8.463517E-1,8.463517E-1,-3.9240098E-1,1.0947809E0,-1.5100803E0,1.2927905E0,-1.279634E0,2.1015687E0,1.6038404E0,-1.4134022E0,8.2217443E-1,3.5053048E0,1.6253209E0,4.804508E-2,1.2236371E-2,2.414574E-2,2.0404574E-3,3.7513368E-2,4.055036E-2,1.7752972E-2,-3.3568814E-3,5.641792E-2,-4.48829E-2,2.350227E-2,-5.1466804E-2,-6.2122284E-3,-7.0119984E-3,-7.1857356E-2,4.7210094E-2,-1.1770744E-2],"split_indices":[3,4,4,3,14,1,10,3,6,4,2,10,6,14,2,0,0,0,0,0,0,0,0,0,0,0,0,0,0,0,0],"split_type":[0,0,0,0,0,0,0,0,0,0,0,0,0,0,0,0,0,0,0,0,0,0,0,0,0,0,0,0,0,0,0],"sum_hessian":[2.4000789E3,1.4552891E3,9.4478973E2,1.0249816E3,4.3030753E2,6.572685E2,2.875212E2,7.27116E2,2.9786554E2,3.464417E2,8.3865814E1,4.3086826E1,6.141817E2,2.4632893E2,4.119227E1,2.3733693E2,4.897791E2,2.692803E2,2.858525E1,2.9253772E2,5.3903984E1,4.7469964E0,7.911881E1,3.2009468E1,1.1077361E1,6.033654E2,1.0816271E1,2.398276E2,6.501328E0,2.6338928E1,1.4853341E1],"tree_param":{"num_deleted":"0","num_feature":"16029","num_nodes":"31","size_leaf_vector":"1"}},{"base_weights":[-6.8541374E-3,4.2436895E-1,-6.762069E-1,2.733764E-1,7.7997017E-1,-9.2131674E-1,-9.137695E-2,3.6033392E-1,1.9313078E-2,6.8386877E-1,9.1332567E-1,-6.908063E-2,-9.3223655E-1,-3.4745562E-1,1.2844728E-1,2.8058296E-2,1.5120225E-2,-3.1386015E-3,3.6283307E-2,3.1643298E-2,5.435441E-2,4.9621325E-2,2.1100687E-2,2.6244944E-2,-6.237312E-2,-4.6979766E-2,8.102351E-3,-3.6897086E-2,-7.812067E-4,1.677772E-2,-1.0403412E-2],"categories":[],"categories_nodes":[],"categories_segments":[],"categories_sizes":[],"default_left":[0,0,0,0,0,0,0,0,0,0,0,0,0,0,0,0,0,0,0,0,0,0,0,0,0,0,0,0,0,0,0],"id":6,"left_children":[1,3,5,7,9,11,13,15,17,19,21,23,25,27,29,-1,-1,-1,-1,-1,-1,-1,-1,-1,-1,-1,-1,-1,-1,-1,-1],"loss_changes":[6.884684E2,7.7677155E1,1.3388269E2,2.2523682E1,4.9096375E0,6.0632935E0,1.5644235E1,8.668945E0,1.518458E1,4.5552216E0,6.494232E0,7.241185E0,5.3866577E0,1.6609566E1,1.0513197E1,0E0,0E0,0E0,0E0,0E0,0E0,0E0,0E0,0E0,0E0,0E0,0E0,0E0,0E0,0E0,0E0],"parents":[2147483647,0,0,1,1,2,2,3,3,4,4,5,5,6,6,7,7,8,8,9,9,10,10,11,11,12,12,13,13,14,14],"right_children":[2,4,6,8,10,12,14,16,18,20,22,24,26,28,30,-1,-1,-1,-1,-1,-1,-1,-1,-1,-1,-1,-1,-1,-1,-1,-1],"split_conditions":[1.779631E-1,8.463517E-1,8.463517E-1,-3.2902718E-1,6.978324E-1,-1.6786108E0,9.0042424E-1,-9.9751794E-1,2.1015687E0,1.4024941E0,1E0,1.1602567E0,1.72197E0,3.2210697E-3,6.978324E-1,2.8058296E-2,1.5120225E-2,-3.1386015E-3,3.6283307E-2,3.1643298E-2,5.435441E-2,4.9621325E-2,2.1100687E-2,2.6244944E-2,-6.237312E-2,-4.6979766E-2,8.102351E-3,-3.6897086E-2,-7.812067E-4,1.677772E-2,-1.0403412E-2],"split_indices":[3,4,4,3,6,4,3,1,6,14,16028,3,11,8,6,0,0,0,0,0,0,0,0,0,0,0,0,0,0,0,0],"split_type":[0,0,0,0,0,0,0,0,0,0,0,0,0,0,0,0,0,0,0,0,0,0,0,0,0,0,0,0,0,0,0],"sum_hessian":[2.3832178E3,1.4496577E3,9.3356E2,1.0188223E3,4.3083542E2,6.574421E2,2.7611792E2,7.5871936E2,2.6010297E2,2.5395396E2,1.7688147E2,8.410013E0,6.4903204E2,1.2727339E2,1.4884453E2,1.6791118E2,5.9080817E2,2.3383966E2,2.6263315E1,2.2771951E2,2.6234444E1,1.5147429E2,2.540718E1,5.960234E0,2.4497786E0,6.4483704E2,4.19502E0,5.790696E1,6.936644E1,9.214012E1,5.670441E1],"tree_param":{"num_deleted":"0","num_feature":"16029","num_nodes":"31","size_leaf_vector":"1"}},{"base_weights":[-5.0761697E-5,4.0363294E-1,-6.3725317E-1,2.7664202E-1,7.154765E-1,-8.960774E-1,-4.6171054E-2,3.261367E-1,-2.9317182E-2,-2.9379874E-1,7.287438E-1,-9.143033E-1,5.4883562E-2,-3.0314982E-1,1.7712966E-1,1.9907465E-2,9.815318E-3,4.0384848E-2,-5.222139E-3,2.4729582E-2,-5.3047873E-2,3.420605E-2,5.340248E-2,-4.611687E-2,1.7652245E-2,-3.2381658E-2,4.8592135E-2,-2.020561E-2,5.743478E-2,1.867815E-2,-8.895518E-3],"categories":[],"categories_nodes":[],"categories_segments":[],"categories_sizes":[],"default_left":[0,0,0,0,0,0,0,0,0,0,0,0,0,0,0,0,0,0,0,0,0,0,0,0,0,0,0,0,0,0,0],"id":7,"left_children":[1,3,5,7,9,11,13,15,17,19,21,23,25,27,29,-1,-1,-1,-1,-1,-1,-1,-1,-1,-1,-1,-1,-1,-1,-1,-1],"loss_changes":[6.152124E2,5.778369E1,1.418635E2,1.5789986E1,5.8790436E0,1.12300415E1,1.632355E1,8.308739E0,9.266211E0,4.2757363E0,5.5960846E0,6.770447E0,9.051102E0,1.9841164E1,1.0690634E1,0E0,0E0,0E0,0E0,0E0,0E0,0E0,0E0,0E0,0E0,0E0,0E0,0E0,0E0,0E0,0E0],"parents":[2147483647,0,0,1,1,2,2,3,3,4,4,5,5,6,6,7,7,8,8,9,9,10,10,11,11,12,12,13,13,14,14],"right_children":[2,4,6,8,10,12,14,16,18,20,22,24,26,28,30,-1,-1,-1,-1,-1,-1,-1,-1,-1,-1,-1,-1,-1,-1,-1,-1],"split_conditions":[1.779631E-1,8.463517E-1,8.463517E-1,-1.1355632E-1,-1.684479E0,3.5053048E0,9.0042424E-1,4.583159E-1,-1.5100803E0,3.441363E-1,1.4104956E0,1.72197E0,5.464953E-1,1.6000657E0,6.978324E-1,1.9907465E-2,9.815318E-3,4.0384848E-2,-5.222139E-3,2.4729582E-2,-5.3047873E-2,3.420605E-2,5.340248E-2,-4.611687E-2,1.7652245E-2,-3.2381658E-2,4.8592135E-2,-2.020561E-2,5.743478E-2,1.867815E-2,-8.895518E-3],"split_indices":[3,4,4,3,11,6,3,14,1,1,1,11,14,10,6,0,0,0,0,0,0,0,0,0,0,0,0,0,0,0,0],"split_type":[0,0,0,0,0,0,0,0,0,0,0,0,0,0,0,0,0,0,0,0,0,0,0,0,0,0,0,0,0,0,0],"sum_hessian":[2.3896987E3,1.4631335E3,9.2656525E2,1.0410696E3,4.2206387E2,6.4403705E2,2.8252823E2,8.9605054E2,1.4501907E2,5.201833E0,4.1686206E2,6.319635E2,1.2073543E1,1.3119217E2,1.5133604E2,5.750325E2,3.210181E2,1.1140918E1,1.3387816E2,2.7406392E0,2.4611938E0,3.7107718E2,4.578486E1,6.2825305E2,3.7104561E0,7.0024333E0,5.07111E0,1.2333688E2,7.8552804E0,9.739697E1,5.393908E1],"tree_param":{"num_deleted":"0","num_feature":"16029","num_nodes":"31","size_leaf_vector":"1"}},{"base_weights":[3.8633521E-3,3.997892E-1,-6.3296527E-1,2.758495E-1,6.9709116E-1,-8.618409E-1,-1.0467784E-1,3.3049256E-1,-5.7112534E-2,6.030715E-1,8.2367724E-1,-8.776064E-1,1.5044743E-2,1.15255475E-1,-3.8570496E-1,1.5025476E-2,2.9668117E-2,-2.2111712E-2,4.779968E-3,3.509445E-2,3.411006E-3,-2.8178154E-2,4.2396348E-2,-7.4476235E-2,-4.2840917E-2,-3.7203904E-2,3.9587792E-2,-1.7132902E-3,4.3094564E-2,-2.9629057E-2,9.077394E-3],"categories":[],"categories_nodes":[],"categories_segments":[],"categories_sizes":[],"default_left":[0,0,0,0,0,0,0,0,0,0,0,0,0,0,0,0,0,0,0,0,0,0,0,0,0,0,0,0,0,0,0],"id":8,"left_children":[1,3,5,7,9,11,13,15,17,19,21,23,25,27,29,-1,-1,-1,-1,-1,-1,-1,-1,-1,-1,-1,-1,-1,-1,-1,-1],"loss_changes":[6.039535E2,5.4232788E1,1.1094345E2,1.9015465E1,4.6676636E0,8.868927E0,1.727153E1,6.892006E0,8.749323E0,1.3309303E1,6.607086E0,6.728546E0,7.8394933E0,1.7570847E1,1.4494335E1,0E0,0E0,0E0,0E0,0E0,0E0,0E0,0E0,0E0,0E0,0E0,0E0,0E0,0E0,0E0,0E0],"parents":[2147483647,0,0,1,1,2,2,3,3,4,4,5,5,6,6,7,7,8,8,9,9,10,10,11,11,12,12,13,13,14,14],"right_children":[2,4,6,8,10,12,14,16,18,20,22,24,26,28,30,-1,-1,-1,-1,-1,-1,-1,-1,-1,-1,-1,-1,-1,-1,-1,-1],"split_conditions":[1.9063786E-1,8.463517E-1,8.463517E-1,-1.1355632E-1,3.2854125E-1,3.5053048E0,4.804508E-2,1.4104956E0,-9.2112213E-1,-2.1175783E-2,-1.684479E0,-1.6096766E0,2.0099993E-1,1.2927905E0,1.382065E0,1.5025476E-2,2.9668117E-2,-2.2111712E-2,4.779968E-3,3.509445E-2,3.411006E-3,-2.8178154E-2,4.2396348E-2,-7.4476235E-2,-4.2840917E-2,-3.7203904E-2,3.9587792E-2,-1.7132902E-3,4.3094564E-2,-2.9629057E-2,9.077394E-3],"split_indices":[3,4,4,3,1,6,2,1,4,1,11,11,5,10,3,0,0,0,0,0,0,0,0,0,0,0,0,0,0,0,0],"split_type":[0,0,0,0,0,0,0,0,0,0,0,0,0,0,0,0,0,0,0,0,0,0,0,0,0,0,0,0,0,0,0],"sum_hessian":[2.3933357E3,1.476035E3,9.173008E2,1.0431096E3,4.3292538E2,6.395781E2,2.7772266E2,8.960625E2,1.4704712E2,2.5172507E2,1.8120033E2,6.2828143E2,1.1296694E1,1.5612683E2,1.2159581E2,8.06245E2,8.981746E1,4.121409E1,1.0583303E2,2.122062E2,3.9518864E1,2.7309632E0,1.7846938E2,1.8321342E1,6.099601E2,5.7342796E0,5.5624146E0,1.3087242E2,2.5254406E1,8.9068146E1,3.252766E1],"tree_param":{"num_deleted":"0","num_feature":"16029","num_nodes":"31","size_leaf_vector":"1"}},{"base_weights":[6.351659E-3,3.9120293E-1,-5.932688E-1,2.7192008E-1,7.1649647E-1,-8.2678044E-1,-5.782171E-2,3.3775142E-1,1.0601813E-1,6.5224326E-1,9.768381E-1,-8.459086E-1,1.2405345E-1,-3.062243E-1,1.5041526E-1,1.114365E-2,2.1239579E-2,2.2829186E-2,1.0150245E-3,3.424569E-2,-6.0277986E-3,-2.0469863E-3,5.1332504E-2,-1.9534932E-2,-4.3710507E-2,-2.8303081E-2,4.18338E-2,-3.3967573E-2,1.5375725E-3,1.6965764E-2,-8.273039E-3],"categories":[],"categories_nodes":[],"categories_segments":[],"categories_sizes":[],"default_left":[0,0,0,0,0,0,0,0,0,0,0,0,0,0,0,0,0,0,0,0,0,0,0,0,0,0,0,0,0,0,0],"id":9,"left_children":[1,3,5,7,9,11,13,15,17,19,21,23,25,27,29,-1,-1,-1,-1,-1,-1,-1,-1,-1,-1,-1,-1,-1,-1,-1,-1],"loss_changes":[5.448448E2,5.5604248E1,1.1535602E2,1.1473564E1,5.806839E0,1.1792816E1,1.4599892E1,7.4445267E0,9.030565E0,7.959381E0,3.8061142E0,7.775879E0,7.1349397E0,1.6194864E1,9.228762E0,0E0,0E0,0E0,0E0,0E0,0E0,0E0,0E0,0E0,0E0,0E0,0E0,0E0,0E0,0E0,0E0],"parents":[2147483647,0,0,1,1,2,2,3,3,4,4,5,5,6,6,7,7,8,8,9,9,10,10,11,11,12,12,13,13,14,14],"right_children":[2,4,6,8,10,12,14,16,18,20,22,24,26,28,30,-1,-1,-1,-1,-1,-1,-1,-1,-1,-1,-1,-1,-1,-1,-1,-1],"split_conditions":[1.5895095E-1,9.0947574E-1,8.463517E-1,-3.9240098E-1,1.0947809E0,3.5053048E0,9.0042424E-1,-1.1402116E0,-1.0861658E0,9.559258E-1,-1.615515E0,-1.5100803E0,2.0099993E-1,3.2210697E-3,6.978324E-1,1.114365E-2,2.1239579E-2,2.2829186E-2,1.0150245E-3,3.424569E-2,-6.0277986E-3,-2.0469863E-3,5.1332504E-2,-1.9534932E-2,-4.3710507E-2,-2.8303081E-2,4.18338E-2,-3.3967573E-2,1.5375725E-3,1.6965764E-2,-8.273039E-3],"split_indices":[3,4,4,3,14,6,3,3,10,14,3,1,5,8,6,0,0,0,0,0,0,0,0,0,0,0,0,0,0,0,0],"split_type":[0,0,0,0,0,0,0,0,0,0,0,0,0,0,0,0,0,0,0,0,0,0,0,0,0,0,0,0,0,0,0],"sum_hessian":[2.3590347E3,1.4370488E3,9.2198596E2,1.0528223E3,3.842266E2,6.416253E2,2.8036066E2,7.529924E2,2.9982986E2,3.1098083E2,7.3245766E1,6.2908026E2,1.2545028E1,1.27635605E2,1.5272505E2,3.261239E2,4.2686847E2,5.8058258E1,2.4177159E2,2.9847632E2,1.2504516E1,3.425835E0,6.981992E1,3.7688705E1,5.9139154E2,6.4776406E0,6.067387E0,6.008668E1,6.754892E1,9.5525024E1,5.7200024E1],"tree_param":{"num_deleted":"0","num_feature":"16029","num_nodes":"31","size_leaf_vector":"1"}},{"base_weights":[-4.1603623E-3,3.5604092E-1,-5.750342E-1,2.3410505E-1,6.538662E-1,-8.002606E-1,-6.953391E-2,2.7522093E-1,-2.3631113E-2,6.069937E-1,1.0360817E0,-3.6717957E-1,-8.307041E-1,-3.2840416E-1,1.4426489E-1,4.7138543E-3,1.7037775E-2,4.3533277E-2,-5.429114E-3,3.1771857E-2,-1.6253106E-2,5.6879204E-2,-1.5143871E-2,-3.316662E-2,3.5803612E-2,-4.2331416E-2,-1.7254371E-3,-3.6606018E-2,1.2486317E-3,1.690584E-2,-1.0036743E-2],"categories":[],"categories_nodes":[],"categories_segments":[],"categories_sizes":[],"default_left":[0,0,0,0,0,0,0,0,0,0,0,0,0,0,0,0,0,0,0,0,0,0,0,0,0,0,0,0,0,0,0],"id":10,"left_children":[1,3,5,7,9,11,13,15,17,19,21,23,25,27,29,-1,-1,-1,-1,-1,-1,-1,-1,-1,-1,-1,-1,-1,-1,-1,-1],"loss_changes":[4.820438E2,5.2044678E1,1.0319696E2,1.082996E1,6.841339E0,7.965393E0,1.5578765E1,1.0413948E1,1.08399315E1,1.011731E1,6.3427505E0,1.4266773E1,7.3915405E0,1.8170437E1,1.0393002E1,0E0,0E0,0E0,0E0,0E0,0E0,0E0,0E0,0E0,0E0,0E0,0E0,0E0,0E0,0E0,0E0],"parents":[2147483647,0,0,1,1,2,2,3,3,4,4,5,5,6,6,7,7,8,8,9,9,10,10,11,11,12,12,13,13,14,14],"right_children":[2,4,6,8,10,12,14,16,18,20,22,24,26,28,30,-1,-1,-1,-1,-1,-1,-1,-1,-1,-1,-1,-1,-1,-1,-1,-1],"split_conditions":[1.779631E-1,8.463517E-1,8.463517E-1,-1.1355632E-1,1.4104956E0,-1.5100803E0,9.0042424E-1,-1.279634E0,-1.5100803E0,1.3171558E0,1.4157007E0,9.547879E-1,3.5053048E0,3.2210697E-3,6.978324E-1,4.7138543E-3,1.7037775E-2,4.3533277E-2,-5.429114E-3,3.1771857E-2,-1.6253106E-2,5.6879204E-2,-1.5143871E-2,-3.316662E-2,3.5803612E-2,-4.2331416E-2,-1.7254371E-3,-3.6606018E-2,1.2486317E-3,1.690584E-2,-1.0036743E-2],"split_indices":[3,4,4,3,1,1,3,3,1,1,10,10,6,8,6,0,0,0,0,0,0,0,0,0,0,0,0,0,0,0,0],"split_type":[0,0,0,0,0,0,0,0,0,0,0,0,0,0,0,0,0,0,0,0,0,0,0,0,0,0,0,0,0,0,0],"sum_hessian":[2.342239E3,1.4363373E3,9.059019E2,1.0203647E3,4.1597253E2,6.262792E2,2.7962274E2,8.79925E2,1.4043968E2,3.728381E2,4.3134434E1,4.1990746E1,5.842884E2,1.2623716E2,1.5338557E2,2.3460591E2,6.453191E2,1.1380981E1,1.290587E2,3.6210602E2,1.0732103E1,4.0234756E1,2.8996773E0,3.327992E1,8.710829E0,5.727695E2,1.1518926E1,5.8421543E1,6.781562E1,9.821789E1,5.516769E1],"tree_param":{"num_deleted":"0","num_feature":"16029","num_nodes":"31","size_leaf_vector":"1"}},{"base_weights":[-8.719435E-3,3.3582583E-1,-5.4469454E-1,2.2525571E-1,5.8429456E-1,-7.5662744E-1,-6.40221E-2,2.6288474E-1,-9.799155E-3,4.7387037E-1,7.3496693E-1,-7.734952E-1,4.702987E-2,2.504645E-1,-1.7905562E-1,1.3774498E-2,-2.421116E-2,9.76863E-3,-1.7212525E-2,2.4353424E-2,-6.240068E-2,4.023581E-2,1.2448173E-2,-2.1627322E-2,-4.04809E-2,-3.4636583E-2,3.1987727E-2,2.0051328E-2,-5.8889728E-2,-1.4920716E-2,9.870632E-3],"categories":[],"categories_nodes":[],"categories_segments":[],"categories_sizes":[],"default_left":[0,0,0,0,0,0,0,0,0,0,0,0,0,0,0,0,0,0,0,0,0,0,0,0,0,0,0,0,0,0,0],"id":11,"left_children":[1,3,5,7,9,11,13,15,17,19,21,23,25,27,29,-1,-1,-1,-1,-1,-1,-1,-1,-1,-1,-1,-1,-1,-1,-1,-1],"loss_changes":[4.327693E2,3.905925E1,9.336664E1,8.748653E0,6.9505005E0,8.66217E0,1.0235363E1,8.160957E0,9.496844E0,6.4248924E0,6.027298E0,7.326233E0,6.5921526E0,1.6785038E1,9.352785E0,0E0,0E0,0E0,0E0,0E0,0E0,0E0,0E0,0E0,0E0,0E0,0E0,0E0,0E0,0E0,0E0],"parents":[2147483647,0,0,1,1,2,2,3,3,4,4,5,5,6,6,7,7,8,8,9,9,10,10,11,11,12,12,13,13,14,14],"right_children":[2,4,6,8,10,12,14,16,18,20,22,24,26,28,30,-1,-1,-1,-1,-1,-1,-1,-1,-1,-1,-1,-1,-1,-1,-1,-1],"split_conditions":[1.5895095E-1,7.8322756E-1,8.463517E-1,-1.1355632E-1,6.978324E-1,3.5053048E0,-8.469953E-1,3.9361668E0,5.6666213E-1,3.335999E0,1E0,3.1104803E-1,5.766679E-2,1.2904962E0,1.3693902E0,1.3774498E-2,-2.421116E-2,9.76863E-3,-1.7212525E-2,2.4353424E-2,-6.240068E-2,4.023581E-2,1.2448173E-2,-2.1627322E-2,-4.04809E-2,-3.4636583E-2,3.1987727E-2,2.0051328E-2,-5.8889728E-2,-1.4920716E-2,9.870632E-3],"split_indices":[3,4,4,3,6,6,14,13,5,7,16028,3,14,8,3,0,0,0,0,0,0,0,0,0,0,0,0,0,0,0,0],"split_type":[0,0,0,0,0,0,0,0,0,0,0,0,0,0,0,0,0,0,0,0,0,0,0,0,0,0,0,0,0,0,0],"sum_hessian":[2.3415127E3,1.4255123E3,9.160003E2,9.878289E2,4.3768338E2,6.353115E2,2.806888E2,8.514114E2,1.3641753E2,2.5496829E2,1.8271507E2,6.2228796E2,1.3023549E1,7.48584E1,2.058304E2,8.3790546E2,1.3505909E1,8.480753E1,5.1609997E1,2.5374052E2,1.2277684E0,1.592101E2,2.3504972E1,6.0857025E1,5.6143097E2,5.7181616E0,7.305387E0,6.837027E1,6.4881325E0,1.5643898E2,4.9391415E1],"tree_param":{"num_deleted":"0","num_feature":"16029","num_nodes":"31","size_leaf_vector":"1"}},{"base_weights":[-1.9035976E-3,3.3651912E-1,-5.49933E-1,2.3323384E-1,5.9425306E-1,-7.541148E-1,-9.2859946E-2,5.761833E-1,2.0663118E-1,7.554144E-1,4.9583614E-1,-3.4721446E-1,-7.8358716E-1,-2.0202687E-1,2.3366913E-1,3.3825856E-2,-4.7539987E-2,1.2219188E-2,-1.2949115E-3,3.4652796E-2,5.843833E-2,-1.4508839E-2,2.6713878E-2,-3.2572854E-2,2.1294003E-2,-4.0590942E-2,-1.267062E-2,-3.0060608E-2,-2.9729696E-3,2.0100167E-2,-2.6633298E-2],"categories":[],"categories_nodes":[],"categories_segments":[],"categories_sizes":[],"default_left":[0,0,0,0,0,0,0,0,0,0,0,0,0,0,0,0,0,0,0,0,0,0,0,0,0,0,0,0,0,0,0],"id":12,"left_children":[1,3,5,7,9,11,13,15,17,19,21,23,25,27,29,-1,-1,-1,-1,-1,-1,-1,-1,-1,-1,-1,-1,-1,-1,-1,-1],"loss_changes":[4.3454077E2,3.84205E1,8.34082E1,9.330338E0,6.1880646E0,7.14093E0,9.933222E0,1.1980549E1,8.457783E0,3.1843185E0,8.004887E0,1.0519518E1,8.409637E0,1.1823599E1,9.238051E0,0E0,0E0,0E0,0E0,0E0,0E0,0E0,0E0,0E0,0E0,0E0,0E0,0E0,0E0,0E0,0E0],"parents":[2147483647,0,0,1,1,2,2,3,3,4,4,5,5,6,6,7,7,8,8,9,9,10,10,11,11,12,12,13,13,14,14],"right_children":[2,4,6,8,10,12,14,16,18,20,22,24,26,28,30,-1,-1,-1,-1,-1,-1,-1,-1,-1,-1,-1,-1,-1,-1,-1,-1],"split_conditions":[1.779631E-1,8.463517E-1,8.463517E-1,-1.4816366E0,-4.5850477E-1,-1.5100803E0,1.382065E0,1.5281771E0,-1.1355632E-1,1.4104956E0,-1.5059546E0,8.2217443E-1,1.667247E0,-7.9173917E-1,9.093695E-1,3.3825856E-2,-4.7539987E-2,1.2219188E-2,-1.2949115E-3,3.4652796E-2,5.843833E-2,-1.4508839E-2,2.6713878E-2,-3.2572854E-2,2.1294003E-2,-4.0590942E-2,-1.267062E-2,-3.0060608E-2,-2.9729696E-3,2.0100167E-2,-2.6633298E-2],"split_indices":[3,4,4,1,11,1,3,14,3,1,0,10,3,8,0,0,0,0,0,0,0,0,0,0,0,0,0,0,0,0,0],"split_type":[0,0,0,0,0,0,0,0,0,0,0,0,0,0,0,0,0,0,0,0,0,0,0,0,0,0,0,0,0,0,0],"sum_hessian":[2.3409744E3,1.4474941E3,8.934801E2,1.0347354E3,4.1275885E2,6.171428E2,2.763373E2,7.29995E1,9.617358E2,1.5396301E2,2.5879584E2,4.25447E1,5.745981E2,2.0738466E2,6.8952644E1,6.902126E1,3.9782367E0,8.273582E2,1.3437762E2,1.3610657E2,1.7856455E1,1.1761411E1,2.4703444E2,3.064288E1,1.1901821E1,5.4504346E2,2.9554668E1,5.3728687E1,1.5365598E2,5.692405E1,1.2028592E1],"tree_param":{"num_deleted":"0","num_feature":"16029","num_nodes":"31","size_leaf_vector":"1"}},{"base_weights":[5.9853466E-3,3.1006444E-1,-4.92738E-1,2.1275E-1,5.492419E-1,-6.928893E-1,-5.3293604E-2,2.847941E-1,8.345748E-2,4.8847818E-1,7.9289246E-1,-6.995924E-1,4.142278E-2,-2.9714972E-1,1.3592285E-1,1.6653167E-2,4.3325784E-4,-3.864765E-2,7.037073E-3,2.6003933E-2,-8.151922E-3,-2.2427276E-2,4.3184184E-2,6.48897E-3,-3.5548292E-2,-1.97222E-2,5.385496E-2,1.457402E-2,-5.902483E-3],"categories":[],"categories_nodes":[],"categories_segments":[],"categories_sizes":[],"default_left":[0,0,0,0,0,0,0,0,0,0,0,0,0,0,0,0,0,0,0,0,0,0,0,0,0,0,0,0,0],"id":13,"left_children":[1,3,5,7,9,11,13,15,17,19,21,23,-1,25,27,-1,-1,-1,-1,-1,-1,-1,-1,-1,-1,-1,-1,-1,-1],"loss_changes":[3.543168E2,3.3665543E1,7.7800415E1,9.601147E0,5.817848E0,6.7792664E0,1.2868614E1,8.835773E0,1.8317284E1,7.044983E0,7.5987015E0,5.8068237E0,0E0,1.6708279E1,6.2463036E0,0E0,0E0,0E0,0E0,0E0,0E0,0E0,0E0,0E0,0E0,0E0,0E0,0E0,0E0],"parents":[2147483647,0,0,1,1,2,2,3,3,4,4,5,5,6,6,7,7,8,8,9,9,10,10,11,11,13,13,14,14],"right_children":[2,4,6,8,10,12,14,16,18,20,22,24,-1,26,28,-1,-1,-1,-1,-1,-1,-1,-1,-1,-1,-1,-1,-1,-1],"split_conditions":[1.9063786E-1,8.463517E-1,8.463517E-1,4.583159E-1,1.0947809E0,6.128254E0,9.0042424E-1,1.235471E0,5.6003326E-1,9.559258E-1,-1.5047427E0,-1.6786108E0,4.142278E-2,1.6000657E0,6.978324E-1,1.6653167E-2,4.3325784E-4,-3.864765E-2,7.037073E-3,2.6003933E-2,-8.151922E-3,-2.2427276E-2,4.3184184E-2,6.48897E-3,-3.5548292E-2,-1.97222E-2,5.385496E-2,1.457402E-2,-5.902483E-3],"split_indices":[3,4,4,14,14,13,3,2,14,14,2,4,0,10,6,0,0,0,0,0,0,0,0,0,0,0,0,0,0],"split_type":[0,0,0,0,0,0,0,0,0,0,0,0,0,0,0,0,0,0,0,0,0,0,0,0,0,0,0,0,0],"sum_hessian":[2.3343833E3,1.4504192E3,8.83964E2,1.0322968E3,4.1812247E2,6.069453E2,2.7701868E2,6.621386E2,3.7015814E2,3.3706668E2,8.105578E1,6.048206E2,2.1247275E0,1.20784744E2,1.5623393E2,5.634394E2,9.8699265E1,2.2423752E1,3.4773438E2,3.2166666E2,1.5400039E1,4.0848646E0,7.697091E1,8.041035E0,5.967796E2,1.1346463E2,7.3201137E0,9.679782E1,5.943611E1],"tree_param":{"num_deleted":"0","num_feature":"16029","num_nodes":"29","size_leaf_vector":"1"}},{"base_weights":[7.915653E-3,3.057503E-1,-4.6670932E-1,2.1124063E-1,5.398225E-1,-6.7842376E-1,-5.4913904E-3,1.9821995E-1,9.380249E-1,4.467226E-1,6.732145E-1,-1.1973509E0,-6.473379E-1,3.4558094E-1,-1.3044356E-1,1.2702263E-2,1.6765551E-3,5.5289205E-2,-2.6592335E-2,3.190689E-2,1.4881955E-2,3.711708E-2,1.41482E-2,-1.5570072E-3,-6.467257E-2,9.443415E-3,-3.3151727E-2,2.2159828E-2,-2.951707E-2,4.424302E-3,-2.2478627E-2],"categories":[],"categories_nodes":[],"categories_segments":[],"categories_sizes":[],"default_left":[0,0,0,0,0,0,0,0,0,0,0,0,0,0,0,0,0,0,0,0,0,0,0,0,0,0,0,0,0,0,0],"id":14,"left_children":[1,3,5,7,9,11,13,15,17,19,21,23,25,27,29,-1,-1,-1,-1,-1,-1,-1,-1,-1,-1,-1,-1,-1,-1,-1,-1],"loss_changes":[3.293916E2,3.1558517E1,8.7725845E1,9.481262E0,4.805359E0,9.158051E0,1.2488935E1,9.229816E0,4.9555073E0,6.8051376E0,4.296051E0,3.728222E0,7.7793427E0,7.0894823E0,1.4707314E1,0E0,0E0,0E0,0E0,0E0,0E0,0E0,0E0,0E0,0E0,0E0,0E0,0E0,0E0,0E0,0E0],"parents":[2147483647,0,0,1,1,2,2,3,3,4,4,5,5,6,6,7,7,8,8,9,9,10,10,11,11,12,12,13,13,14,14],"right_children":[2,4,6,8,10,12,14,16,18,20,22,24,26,28,30,-1,-1,-1,-1,-1,-1,-1,-1,-1,-1,-1,-1,-1,-1,-1,-1],"split_conditions":[1.5895095E-1,8.463517E-1,8.463517E-1,3.5053048E0,6.978324E-1,-1.5358018E0,-8.469953E-1,-3.2902718E-1,1.418152E0,-2.7592984E-1,1E0,2.9837328E-1,-1.4936002E0,1.3457053E0,2.3072599E-1,1.2702263E-2,1.6765551E-3,5.5289205E-2,-2.6592335E-2,3.190689E-2,1.4881955E-2,3.711708E-2,1.41482E-2,-1.5570072E-3,-6.467257E-2,9.443415E-3,-3.3151727E-2,2.2159828E-2,-2.951707E-2,4.424302E-3,-2.2478627E-2],"split_indices":[3,4,4,6,6,8,14,3,2,10,16028,3,8,8,2,0,0,0,0,0,0,0,0,0,0,0,0,0,0,0,0],"split_type":[0,0,0,0,0,0,0,0,0,0,0,0,0,0,0,0,0,0,0,0,0,0,0,0,0,0,0,0,0,0,0],"sum_hessian":[2.3281558E3,1.4307152E3,8.9744055E2,1.02055524E3,4.1015994E2,6.147697E2,2.8267078E2,1.0038436E3,1.671158E1,2.4412424E2,1.6603572E2,3.2625343E1,5.821444E2,7.373507E1,2.0893571E2,7.493057E2,2.5453792E2,1.5221969E1,1.4896119E0,1.0545073E2,1.3867351E2,1.4028421E2,2.57515E1,2.5845857E0,3.004076E1,1.0522911E1,5.7162146E2,6.724767E1,6.487397E0,1.2435093E2,8.4584785E1],"tree_param":{"num_deleted":"0","num_feature":"16029","num_nodes":"31","size_leaf_vector":"1"}},{"base_weights":[-3.8057927E-3,2.7613166E-1,-4.594367E-1,3.0456895E-1,1.1145521E-1,-6.763308E-1,-3.807261E-1,3.1124997E-1,-5.0363123E-1,8.552098E-1,4.8212785E-2,-8.058315E-1,-3.5840464E-1,-1.2697502E0,-3.6684677E-1,8.943239E-4,1.6519107E-2,2.370219E-2,-4.5474168E-2,6.839782E-2,4.068133E-3,-7.788233E-3,1.1799737E-2,-9.448093E-3,-4.4803802E-2,-2.6317155E-2,3.006781E-2,-7.152959E-2,-3.0358965E-3,-1.9156111E-2,1.5505041E-2],"categories":[],"categories_nodes":[],"categories_segments":[],"categories_sizes":[],"default_left":[0,0,0,0,0,0,0,0,0,0,0,0,0,0,0,0,0,0,0,0,0,0,0,0,0,0,0,0,0,0,0],"id":15,"left_children":[1,3,5,7,9,11,13,15,17,19,21,23,25,27,29,-1,-1,-1,-1,-1,-1,-1,-1,-1,-1,-1,-1,-1,-1,-1,-1],"loss_changes":[2.938634E2,6.649246E0,1.4711365E1,6.7248383E0,9.917973E0,9.270477E0,7.500717E0,6.768837E0,4.5398817E0,6.44886E0,7.551817E0,8.970367E0,1.1438355E1,1.7640944E0,7.138298E0,0E0,0E0,0E0,0E0,0E0,0E0,0E0,0E0,0E0,0E0,0E0,0E0,0E0,0E0,0E0,0E0],"parents":[2147483647,0,0,1,1,2,2,3,3,4,4,5,5,6,6,7,7,8,8,9,9,10,10,11,11,12,12,13,13,14,14],"right_children":[2,4,6,8,10,12,14,16,18,20,22,24,26,28,30,-1,-1,-1,-1,-1,-1,-1,-1,-1,-1,-1,-1,-1,-1,-1,-1],"split_conditions":[1.779631E-1,1.2979865E0,-7.684644E-1,1.6714716E0,-1.5194656E0,1.2679921E0,-1.684479E0,-1.5112709E0,-8.6622155E-1,3.855203E-1,1E0,2.9837328E-1,1E0,1.3356032E0,3.5053048E0,8.943239E-4,1.6519107E-2,2.370219E-2,-4.5474168E-2,6.839782E-2,4.068133E-3,-7.788233E-3,1.1799737E-2,-9.448093E-3,-4.4803802E-2,-2.6317155E-2,3.006781E-2,-7.152959E-2,-3.0358965E-3,-1.9156111E-2,1.5505041E-2],"split_indices":[3,5,8,7,11,3,11,11,10,10,16015,3,16024,0,6,0,0,0,0,0,0,0,0,0,0,0,0,0,0,0,0],"split_type":[0,0,0,0,0,0,0,0,0,0,0,0,0,0,0,0,0,0,0,0,0,0,0,0,0,0,0,0,0,0,0],"sum_hessian":[2.3019463E3,1.4261317E3,8.758145E2,1.2153998E3,2.1073195E2,2.3118126E2,6.4463324E2,1.2060448E3,9.354925E0,1.5533182E1,1.9519876E2,1.6317902E2,6.800225E1,8.518311E0,6.361149E2,7.395705E1,1.1320878E3,2.6949418E0,6.6599836E0,8.88097E0,6.6522126E0,9.364632E1,1.0155245E2,2.1220367E1,1.4195865E2,5.8259605E1,9.742648E0,7.356409E0,1.161901E0,6.216041E2,1.4510808E1],"tree_param":{"num_deleted":"0","num_feature":"16029","num_nodes":"31","size_leaf_vector":"1"}},{"base_weights":[1.0333424E-2,2.8123328E-1,-4.3196762E-1,1.904408E-1,5.095032E-1,-6.208913E-1,-2.169511E-2,3.8719088E-1,1.3354547E-1,8.0532914E-1,4.531348E-1,-7.3434454E-1,-5.018778E-1,-1.0662039E-1,5.020586E-1,2.4036052E-2,-6.6223805E-4,-1.916319E-3,1.1954157E-2,-6.657713E-3,4.7180504E-2,1.558287E-2,2.9837979E-2,-3.910617E-2,-4.941684E-3,-1.4916385E-2,-3.588233E-2,-1.6965315E-2,7.1420283E-3,4.3247193E-2,-1.0891044E-2],"categories":[],"categories_nodes":[],"categories_segments":[],"categories_sizes":[],"default_left":[0,0,0,0,0,0,0,0,0,0,0,0,0,0,0,0,0,0,0,0,0,0,0,0,0,0,0,0,0,0,0],"id":16,"left_children":[1,3,5,7,9,11,13,15,17,19,21,23,25,27,29,-1,-1,-1,-1,-1,-1,-1,-1,-1,-1,-1,-1,-1,-1,-1,-1],"loss_changes":[2.7448807E2,2.934681E1,6.743263E1,1.1344021E1,6.3664017E0,7.6757507E0,1.2302988E1,8.538975E0,1.4360401E1,8.343044E0,6.750145E0,9.118408E0,1.2694664E1,1.38514595E1,1.0271776E1,0E0,0E0,0E0,0E0,0E0,0E0,0E0,0E0,0E0,0E0,0E0,0E0,0E0,0E0,0E0,0E0],"parents":[2147483647,0,0,1,1,2,2,3,3,4,4,5,5,6,6,7,7,8,8,9,9,10,10,11,11,12,12,13,13,14,14],"right_children":[2,4,6,8,10,12,14,16,18,20,22,24,26,28,30,-1,-1,-1,-1,-1,-1,-1,-1,-1,-1,-1,-1,-1,-1,-1,-1],"split_conditions":[1.9063786E-1,8.463517E-1,8.463517E-1,-1.0095408E0,-1.2336524E0,2.8961095E-1,1.2927905E0,1.1151553E0,6.6402316E-2,-1.2217988E0,3.2854125E-1,1.6545722E0,1.4459349E0,1.0398465E0,4.804508E-2,2.4036052E-2,-6.6223805E-4,-1.916319E-3,1.1954157E-2,-6.657713E-3,4.7180504E-2,1.558287E-2,2.9837979E-2,-3.910617E-2,-4.941684E-3,-1.4916385E-2,-3.588233E-2,-1.6965315E-2,7.1420283E-3,4.3247193E-2,-1.0891044E-2],"split_indices":[3,4,4,1,1,9,10,5,1,0,1,3,9,3,2,0,0,0,0,0,0,0,0,0,0,0,0,0,0,0,0],"split_type":[0,0,0,0,0,0,0,0,0,0,0,0,0,0,0,0,0,0,0,0,0,0,0,0,0,0,0,0,0,0,0],"sum_hessian":[2.2888364E3,1.4196783E3,8.691582E2,1.0170066E3,4.0267172E2,5.947653E2,2.7439288E2,2.2682306E2,7.9018353E2,6.2320694E1,3.40351E2,3.018486E2,2.9291672E2,2.3679382E2,3.7599064E1,1.8371263E2,4.3110428E1,3.0085962E2,4.8932388E2,8.008148E0,5.4312546E1,1.7305417E2,1.6729686E2,2.805273E2,2.1321272E1,1.5195209E2,1.4096463E2,1.2232989E2,1.1446394E2,2.4863878E1,1.2735187E1],"tree_param":{"num_deleted":"0","num_feature":"16029","num_nodes":"31","size_leaf_vector":"1"}},{"base_weights":[7.5990646E-3,2.583038E-1,-4.0693808E-1,2.3041452E-1,5.297683E-1,-6.186677E-1,-3.264474E-1,3.8410228E-1,1.8150459E-1,5.764296E-1,-7.2620356E-1,-7.566532E-1,-1.6434258E-1,-3.8880244E-1,-1.4322735E-1,1.3504254E-2,3.328523E-2,1.2302156E-2,3.1013188E-3,3.4182977E-2,-1.1232109E-3,4.401577E-2,-6.618017E-2,-2.9200135E-2,-5.154276E-2,3.6918975E-2,-1.869262E-2,-1.5671475E-2,-3.6929663E-2,4.8143685E-2,-1.2232024E-2],"categories":[],"categories_nodes":[],"categories_segments":[],"categories_sizes":[],"default_left":[0,0,0,0,0,0,0,0,0,0,0,0,0,0,0,0,0,0,0,0,0,0,0,0,0,0,0,0,0,0,0],"id":17,"left_children":[1,3,5,7,9,11,13,15,17,19,21,23,25,27,29,-1,-1,-1,-1,-1,-1,-1,-1,-1,-1,-1,-1,-1,-1,-1,-1],"loss_changes":[2.3732857E2,1.0651321E1,1.446492E1,9.643478E0,8.142979E0,1.4666542E1,7.0925293E0,9.807453E0,7.5579033E0,8.212269E0,6.12107E0,7.952263E0,1.0912935E1,1.2060532E1,1.8234074E1,0E0,0E0,0E0,0E0,0E0,0E0,0E0,0E0,0E0,0E0,0E0,0E0,0E0,0E0,0E0,0E0],"parents":[2147483647,0,0,1,1,2,2,3,3,4,4,5,5,6,6,7,7,8,8,9,9,10,10,11,11,12,12,13,13,14,14],"right_children":[2,4,6,8,10,12,14,16,18,20,22,24,26,28,30,-1,-1,-1,-1,-1,-1,-1,-1,-1,-1,-1,-1,-1,-1,-1,-1],"split_conditions":[1.779631E-1,1.426667E0,-7.313782E-1,-1.0095408E0,1.5386107E0,1.3567154E0,8.6583984E-1,8.2924443E-1,4.583159E-1,1E0,-9.3764305E-1,3.2206646E-1,-1.008682E0,1.2904962E0,-1.5270389E0,1.3504254E-2,3.328523E-2,1.2302156E-2,3.1013188E-3,3.4182977E-2,-1.1232109E-3,4.401577E-2,-6.618017E-2,-2.9200135E-2,-5.154276E-2,3.6918975E-2,-1.869262E-2,-1.5671475E-2,-3.6929663E-2,4.8143685E-2,-1.2232024E-2],"split_indices":[3,1,8,1,10,3,10,11,14,16028,0,2,0,8,1,0,0,0,0,0,0,0,0,0,0,0,0,0,0,0,0],"split_type":[0,0,0,0,0,0,0,0,0,0,0,0,0,0,0,0,0,0,0,0,0,0,0,0,0,0,0,0,0,0,0],"sum_hessian":[2.2816094E3,1.4219912E3,8.596183E2,1.291188E3,1.308032E2,2.3493599E2,6.2468225E2,3.100565E2,9.8113153E2,1.266394E2,4.163807E0,1.7969458E2,5.5241417E1,4.6522937E2,1.5945291E2,2.2209296E2,8.796353E1,6.3634033E2,3.4479117E2,1.0728827E2,1.9351128E1,1.0002828E0,3.1635244E0,1.1218649E2,6.750809E1,9.930258E0,4.5311157E1,3.8431354E2,8.0915825E1,1.2678244E1,1.4677466E2],"tree_param":{"num_deleted":"0","num_feature":"16029","num_nodes":"31","size_leaf_vector":"1"}},{"base_weights":[-1.9989947E-3,2.4403967E-1,-4.165862E-1,1.6211087E-1,4.5347455E-1,-6.0113597E-1,-2.5597077E-2,2.3209502E-1,3.6022317E-2,3.9183557E-1,7.186626E-1,-2.4319935E-1,-6.312547E-1,-1.4754802E-1,3.1588104E-1,4.4325297E-3,1.5404728E-2,2.2779895E-2,-4.2514066E-4,2.1344515E-2,-1.4736935E-2,-2.0360526E-2,3.9205607E-2,6.621356E-2,-1.7765589E-2,-5.5357244E-2,-3.0285819E-2,-2.7101994E-2,-4.7113592E-4,2.4899373E-2,-2.4019908E-2],"categories":[],"categories_nodes":[],"categories_segments":[],"categories_sizes":[],"default_left":[0,0,0,0,0,0,0,0,0,0,0,0,0,0,0,0,0,0,0,0,0,0,0,0,0,0,0,0,0,0,0],"id":18,"left_children":[1,3,5,7,9,11,13,15,17,19,21,23,25,27,29,-1,-1,-1,-1,-1,-1,-1,-1,-1,-1,-1,-1,-1,-1,-1,-1],"loss_changes":[2.340291E2,2.4632248E1,6.1640686E1,9.138124E0,6.3272552E0,6.1039124E0,1.1500073E1,7.237297E0,6.937558E0,8.074368E0,5.849827E0,8.673209E0,5.8285522E0,1.1074846E1,1.0780373E1,0E0,0E0,0E0,0E0,0E0,0E0,0E0,0E0,0E0,0E0,0E0,0E0,0E0,0E0,0E0,0E0],"parents":[2147483647,0,0,1,1,2,2,3,3,4,4,5,5,6,6,7,7,8,8,9,9,10,10,11,11,12,12,13,13,14,14],"right_children":[2,4,6,8,10,12,14,16,18,20,22,24,26,28,30,-1,-1,-1,-1,-1,-1,-1,-1,-1,-1,-1,-1,-1,-1,-1,-1],"split_conditions":[1.9063786E-1,8.463517E-1,8.463517E-1,-5.2548593E-1,1.0947809E0,-1.4349157E0,1.382065E0,-4.7139207E-1,-1.4134022E0,9.559258E-1,-1.4134022E0,-1.5112709E0,-1.5510534E0,-7.9173917E-1,1E0,4.4325297E-3,1.5404728E-2,2.2779895E-2,-4.2514066E-4,2.1344515E-2,-1.4736935E-2,-2.0360526E-2,3.9205607E-2,6.621356E-2,-1.7765589E-2,-5.5357244E-2,-3.0285819E-2,-2.7101994E-2,-4.7113592E-4,2.4899373E-2,-2.4019908E-2],"split_indices":[3,4,4,3,14,0,3,11,2,14,2,11,11,8,16020,0,0,0,0,0,0,0,0,0,0,0,0,0,0,0,0],"split_type":[0,0,0,0,0,0,0,0,0,0,0,0,0,0,0,0,0,0,0,0,0,0,0,0,0,0,0,0,0,0,0],"sum_hessian":[2.2923057E3,1.4388344E3,8.5347144E2,1.0355225E3,4.0331186E2,5.7943585E2,2.7403555E2,6.653731E2,3.7014932E2,3.292583E2,7.405356E1,4.5676968E1,5.337589E2,2.0234181E2,7.169374E1,2.3118752E2,4.341856E2,3.462583E1,3.3552347E2,3.1362372E2,1.5634597E1,3.7815156E0,7.027205E1,2.3272424E0,4.3349728E1,2.502792E1,5.08731E2,5.1715588E1,1.5062622E2,5.8654305E1,1.3039436E1],"tree_param":{"num_deleted":"0","num_feature":"16029","num_nodes":"31","size_leaf_vector":"1"}},{"base_weights":[6.896386E-3,2.3516585E-1,-3.699669E-1,1.3897663E-1,4.7694814E-1,-5.4544276E-1,-6.8085855E-3,1.9811402E-1,-2.3986245E-2,4.3302563E-1,8.548915E-1,-5.6255126E-1,1.7409143E-1,-2.266965E-1,1.7034087E-1,2.6070733E-2,8.726864E-3,2.8071836E-2,-4.633018E-3,3.875191E-2,1.9351996E-2,-6.103385E-3,5.1326778E-2,-6.172755E-2,-2.7035672E-2,-3.047545E-2,4.1924126E-2,-2.588358E-2,1.0428741E-3,1.3139607E-2,-2.5123283E-2],"categories":[],"categories_nodes":[],"categories_segments":[],"categories_sizes":[],"default_left":[0,0,0,0,0,0,0,0,0,0,0,0,0,0,0,0,0,0,0,0,0,0,0,0,0,0,0,0,0,0,0],"id":19,"left_children":[1,3,5,7,9,11,13,15,17,19,21,23,25,27,29,-1,-1,-1,-1,-1,-1,-1,-1,-1,-1,-1,-1,-1,-1,-1,-1],"loss_changes":[1.9417206E2,3.2625107E1,5.425495E1,9.7095585E0,6.2641144E0,7.164566E0,1.08829565E1,5.5418587E0,1.0867713E1,5.3630753E0,6.9306927E0,7.5644226E0,7.849641E0,8.989086E0,9.757923E0,0E0,0E0,0E0,0E0,0E0,0E0,0E0,0E0,0E0,0E0,0E0,0E0,0E0,0E0,0E0,0E0],"parents":[2147483647,0,0,1,1,2,2,3,3,4,4,5,5,6,6,7,7,8,8,9,9,10,10,11,11,12,12,13,13,14,14],"right_children":[2,4,6,8,10,12,14,16,18,20,22,24,26,28,30,-1,-1,-1,-1,-1,-1,-1,-1,-1,-1,-1,-1,-1,-1,-1,-1],"split_conditions":[1.9063786E-1,8.463517E-1,8.463517E-1,-3.2902718E-1,1.4143854E0,3.5053048E0,-3.032094E-2,-1.44448E0,-1.4134022E0,-1.3571136E0,-1.3873694E0,-1.6096766E0,5.766679E-2,9.194364E-1,1E0,2.6070733E-2,8.726864E-3,2.8071836E-2,-4.633018E-3,3.875191E-2,1.9351996E-2,-6.103385E-3,5.1326778E-2,-6.172755E-2,-2.7035672E-2,-3.047545E-2,4.1924126E-2,-2.588358E-2,1.0428741E-3,1.3139607E-2,-2.5123283E-2],"split_indices":[3,4,4,3,14,6,8,5,2,11,3,11,14,3,16026,0,0,0,0,0,0,0,0,0,0,0,0,0,0,0,0],"split_type":[0,0,0,0,0,0,0,0,0,0,0,0,0,0,0,0,0,0,0,0,0,0,0,0,0,0,0,0,0,0,0],"sum_hessian":[2.2551108E3,1.4046672E3,8.504436E2,1.0060151E3,3.986522E2,5.730483E2,2.7739532E2,7.3799084E2,2.6802423E2,3.590689E2,3.9583298E1,5.5995233E2,1.3095922E1,1.2364298E2,1.5375235E2,4.8724957E1,6.8926587E2,2.7386703E1,2.4063754E2,4.0677956E1,3.1839096E2,5.958381E0,3.3624916E1,1.587607E1,5.440763E2,6.046787E0,7.049135E0,5.6335297E1,6.7307686E1,1.3571323E2,1.8039133E1],"tree_param":{"num_deleted":"0","num_feature":"16029","num_nodes":"31","size_leaf_vector":"1"}},{"base_weights":[1.8365439E-2,2.46258E-1,-3.551186E-1,1.693344E-1,4.6775585E-1,-5.2752304E-1,2.817121E-3,2.2288033E-1,3.675913E-2,4.2284507E-1,8.020534E-1,-5.4392856E-1,2.6752496E-1,3.168502E-2,-1.0673357E0,3.2151736E-2,9.759114E-3,7.352806E-3,-7.6765083E-3,2.3500254E-2,6.1998274E-3,4.882263E-2,-7.967871E-4,-1.04354825E-2,-2.8994633E-2,-3.460798E-2,4.830248E-2,-7.1955235E-3,8.869928E-3,-7.427781E-2,2.4563666E-3],"categories":[],"categories_nodes":[],"categories_segments":[],"categories_sizes":[],"default_left":[0,0,0,0,0,0,0,0,0,0,0,0,0,0,0,0,0,0,0,0,0,0,0,0,0,0,0,0,0,0,0],"id":20,"left_children":[1,3,5,7,9,11,13,15,17,19,21,23,25,27,29,-1,-1,-1,-1,-1,-1,-1,-1,-1,-1,-1,-1,-1,-1,-1,-1],"loss_changes":[1.9238794E2,2.383828E1,5.2860954E1,7.3992386E0,5.084831E0,7.686142E0,8.667041E0,8.521942E0,6.3483906E0,4.4601746E0,5.960272E0,6.7118683E0,8.9534235E0,7.012876E0,3.5138903E0,0E0,0E0,0E0,0E0,0E0,0E0,0E0,0E0,0E0,0E0,0E0,0E0,0E0,0E0,0E0,0E0],"parents":[2147483647,0,0,1,1,2,2,3,3,4,4,5,5,6,6,7,7,8,8,9,9,10,10,11,11,12,12,13,13,14,14],"right_children":[2,4,6,8,10,12,14,16,18,20,22,24,26,28,30,-1,-1,-1,-1,-1,-1,-1,-1,-1,-1,-1,-1,-1,-1,-1,-1],"split_conditions":[1.5895095E-1,9.0947574E-1,8.463517E-1,-3.9240098E-1,1.4104956E0,3.5053048E0,1.6408712E0,-1.44448E0,4.4093615E-1,1E0,1.5407163E0,3.1104803E-1,5.766679E-2,-4.2378526E-2,1.1151553E0,3.2151736E-2,9.759114E-3,7.352806E-3,-7.6765083E-3,2.3500254E-2,6.1998274E-3,4.882263E-2,-7.967871E-4,-1.04354825E-2,-2.8994633E-2,-3.460798E-2,4.830248E-2,-7.1955235E-3,8.869928E-3,-7.427781E-2,2.4563666E-3],"split_indices":[3,4,4,3,1,6,14,5,14,16022,4,3,14,8,5,0,0,0,0,0,0,0,0,0,0,0,0,0,0,0,0],"split_type":[0,0,0,0,0,0,0,0,0,0,0,0,0,0,0,0,0,0,0,0,0,0,0,0,0,0,0,0,0,0,0],"sum_hessian":[2.258322E3,1.402739E3,8.5558295E2,1.0424669E3,3.602721E2,5.771279E2,2.7845502E2,7.420704E2,3.0039658E2,3.1960065E2,4.0671463E1,5.6576935E2,1.1358618E1,2.7208575E2,6.369255E0,4.452039E1,6.9755E2,1.9031302E2,1.1008355E2,2.755453E2,4.405536E1,3.3364307E1,7.3071547E0,5.5476776E1,5.1029257E2,4.7886834E0,6.569934E0,1.23396416E2,1.4868935E2,4.393052E0,1.9762031E0],"tree_param":{"num_deleted":"0","num_feature":"16029","num_nodes":"31","size_leaf_vector":"1"}},{"base_weights":[6.520492E-3,2.079072E-1,-3.215081E-1,5.2220386E-1,1.8252346E-1,-2.4931036E-1,-4.6952024E-1,6.09418E-1,-8.846166E-1,1.1302355E-1,3.2999915E-1,-4.98108E-1,-1.906104E-1,-6.9337183E-1,-2.8545162E-1,-2.425388E-3,3.594414E-2,-7.277729E-2,1.7267322E-2,1.6464768E-2,3.7063998E-3,1.7856633E-2,-1.7378053E-2,-1.2857248E-2,-4.7033895E-2,1.3377624E-2,-1.1245198E-2,-3.9236695E-2,4.4832584E-3,-9.776383E-3,-5.1012665E-2],"categories":[],"categories_nodes":[],"categories_segments":[],"categories_sizes":[],"default_left":[0,0,0,0,0,0,0,0,0,0,0,0,0,0,0,0,0,0,0,0,0,0,0,0,0,0,0,0,0,0,0],"id":21,"left_children":[1,3,5,7,9,11,13,15,17,19,21,23,25,27,29,-1,-1,-1,-1,-1,-1,-1,-1,-1,-1,-1,-1,-1,-1,-1,-1],"loss_changes":[1.4872855E2,1.1033691E1,9.034836E0,1.3263193E1,1.3207695E1,8.343075E0,1.13249855E1,7.110359E0,5.0402083E0,7.3768864E0,7.724373E0,1.1454098E1,7.430649E0,9.047962E0,1.0053171E1,0E0,0E0,0E0,0E0,0E0,0E0,0E0,0E0,0E0,0E0,0E0,0E0,0E0,0E0,0E0,0E0],"parents":[2147483647,0,0,1,1,2,2,3,3,4,4,5,5,6,6,7,7,8,8,9,9,10,10,11,11,12,12,13,13,14,14],"right_children":[2,4,6,8,10,12,14,16,18,20,22,24,26,28,30,-1,-1,-1,-1,-1,-1,-1,-1,-1,-1,-1,-1,-1,-1,-1,-1],"split_conditions":[1.5895095E-1,-1.4816366E0,5.047474E-1,1.5281771E0,7.4284714E-1,-1.0826281E0,-1.02281556E-1,-1.2928377E0,1.0000706E0,-1.2317172E0,1.6921734E0,5.040521E-1,-1.519952E0,2.1015687E0,1.3018961E0,-2.425388E-3,3.594414E-2,-7.277729E-2,1.7267322E-2,1.6464768E-2,3.7063998E-3,1.7856633E-2,-1.7378053E-2,-1.2857248E-2,-4.7033895E-2,1.3377624E-2,-1.1245198E-2,-3.9236695E-2,4.4832584E-3,-9.776383E-3,-5.1012665E-2],"split_indices":[3,1,2,14,1,11,1,0,10,10,2,14,1,6,8,0,0,0,0,0,0,0,0,0,0,0,0,0,0,0,0],"split_type":[0,0,0,0,0,0,0,0,0,0,0,0,0,0,0,0,0,0,0,0,0,0,0,0,0,0,0,0,0,0,0],"sum_hessian":[2.2493835E3,1.3939573E3,8.554264E2,1.0270544E2,1.2912518E3,5.7677167E2,2.786548E2,9.7243744E1,5.461692E0,8.788488E2,4.1240298E2,1.0867425E2,4.6809738E2,1.2449077E2,1.54164E2,1.3950821E1,8.329292E1,3.604933E0,1.856759E0,1.3282622E2,7.460226E2,3.9697852E2,1.5424456E1,7.138744E1,3.728681E1,3.2123592E1,4.3597382E2,1.1148134E2,1.3009426E1,1.3848279E2,1.5681226E1],"tree_param":{"num_deleted":"0","num_feature":"16029","num_nodes":"31","size_leaf_vector":"1"}},{"base_weights":[-3.480574E-3,1.9987768E-1,-3.448708E-1,1.0945127E-1,4.32847E-1,-5.236582E-1,1.5115083E-2,1.743348E-1,-3.0090401E-3,3.233078E-1,5.832518E-1,-7.0885164E-1,-4.5445123E-1,3.669909E-1,-1.1368254E-1,-3.0101527E-2,9.50369E-3,2.1920921E-2,-2.5794085E-3,2.3831908E-2,9.241699E-3,2.4249008E-2,4.709683E-2,-4.2092178E-2,-8.532574E-4,-2.349385E-2,4.8001166E-2,2.3872374E-2,-3.726561E-2,-8.862301E-3,2.598013E-2],"categories":[],"categories_nodes":[],"categories_segments":[],"categories_sizes":[],"default_left":[0,0,0,0,0,0,0,0,0,0,0,0,0,0,0,0,0,0,0,0,0,0,0,0,0,0,0,0,0,0,0],"id":22,"left_children":[1,3,5,7,9,11,13,15,17,19,21,23,25,27,29,-1,-1,-1,-1,-1,-1,-1,-1,-1,-1,-1,-1,-1,-1,-1,-1],"loss_changes":[1.565401E2,2.9721687E1,5.4182915E1,7.438246E0,6.3155823E0,6.88649E0,1.2744922E1,8.012918E0,8.040816E0,4.809492E0,5.3632965E0,1.3898178E1,9.4455185E0,9.612494E0,8.382491E0,0E0,0E0,0E0,0E0,0E0,0E0,0E0,0E0,0E0,0E0,0E0,0E0,0E0,0E0,0E0,0E0],"parents":[2147483647,0,0,1,1,2,2,3,3,4,4,5,5,6,6,7,7,8,8,9,9,10,10,11,11,12,12,13,13,14,14],"right_children":[2,4,6,8,10,12,14,16,18,20,22,24,26,28,30,-1,-1,-1,-1,-1,-1,-1,-1,-1,-1,-1,-1,-1,-1,-1,-1],"split_conditions":[1.779631E-1,8.463517E-1,8.463517E-1,-5.381607E-1,6.978324E-1,-7.17311E-1,-8.469953E-1,-1.6480324E0,-1.4134022E0,-1.0533704E-1,-2.0227961E-1,1E0,1.7090126E0,1.2904962E0,1.4674522E0,-3.0101527E-2,9.50369E-3,2.1920921E-2,-2.5794085E-3,2.3831908E-2,9.241699E-3,2.4249008E-2,4.709683E-2,-4.2092178E-2,-8.532574E-4,-2.349385E-2,4.8001166E-2,2.3872374E-2,-3.726561E-2,-8.862301E-3,2.598013E-2],"split_indices":[3,4,4,3,6,8,14,0,2,14,3,16024,11,8,10,0,0,0,0,0,0,0,0,0,0,0,0,0,0,0,0],"split_type":[0,0,0,0,0,0,0,0,0,0,0,0,0,0,0,0,0,0,0,0,0,0,0,0,0,0,0,0,0,0,0],"sum_hessian":[2.2528313E3,1.4120941E3,8.4073724E2,1.01830975E3,3.9378436E2,5.6144183E2,2.7929535E2,6.453991E2,3.7291058E2,2.2966779E2,1.6411658E2,1.5022003E2,4.1122183E2,7.434233E1,2.0495303E2,1.2083821E1,6.333153E2,3.617468E1,3.3673593E2,1.0782854E2,1.2183925E2,1.3066846E2,3.3448124E1,1.2581577E2,2.440426E1,4.0744617E2,3.7756596E0,6.8145905E1,6.1964293E0,1.8691254E2,1.804049E1],"tree_param":{"num_deleted":"0","num_feature":"16029","num_nodes":"31","size_leaf_vector":"1"}},{"base_weights":[-3.2858385E-3,1.7845534E-1,-3.065144E-1,9.484141E-2,3.945333E-1,-4.6603495E-1,1.3577813E-2,3.106768E-1,5.3112164E-2,4.4468436E-1,1.2521642E-1,-3.9455077E-1,-6.2672263E-1,3.276643E-1,-1.0322022E-1,1.8022073E-2,-2.7076198E-2,7.3207314E-3,-5.9153223E-3,1.8095002E-2,3.2295804E-2,2.1332767E-2,-2.252176E-2,-1.5813949E-2,-3.7212357E-2,-2.1238713E-2,-4.5293868E-2,2.2522138E-2,-3.3899244E-2,5.7249065E-3,-1.8386155E-2],"categories":[],"categories_nodes":[],"categories_segments":[],"categories_sizes":[],"default_left":[0,0,0,0,0,0,0,0,0,0,0,0,0,0,0,0,0,0,0,0,0,0,0,0,0,0,0,0,0,0,0],"id":23,"left_children":[1,3,5,7,9,11,13,15,17,19,21,23,25,27,29,-1,-1,-1,-1,-1,-1,-1,-1,-1,-1,-1,-1,-1,-1,-1,-1],"loss_changes":[1.2316296E2,2.520929E1,4.277099E1,9.069683E0,5.2058296E0,6.1735687E0,1.02883625E1,7.1180687E0,1.3557518E1,5.230461E0,1.1045254E1,1.0427837E1,9.221947E0,9.690641E0,1.1819875E1,0E0,0E0,0E0,0E0,0E0,0E0,0E0,0E0,0E0,0E0,0E0,0E0,0E0,0E0,0E0,0E0],"parents":[2147483647,0,0,1,1,2,2,3,3,4,4,5,5,6,6,7,7,8,8,9,9,10,10,11,11,12,12,13,13,14,14],"right_children":[2,4,6,8,10,12,14,16,18,20,22,24,26,28,30,-1,-1,-1,-1,-1,-1,-1,-1,-1,-1,-1,-1,-1,-1,-1,-1],"split_conditions":[1.9063786E-1,8.463517E-1,8.463517E-1,-1.1393808E0,1.6038404E0,2.5738837E-2,-8.469953E-1,1.5386107E0,4.583159E-1,7.9193693E-1,4.919552E-1,1.7440795E0,2.561413E-1,1.2904962E0,4.804508E-2,1.8022073E-2,-2.7076198E-2,7.3207314E-3,-5.9153223E-3,1.8095002E-2,3.2295804E-2,2.1332767E-2,-2.252176E-2,-1.5813949E-2,-3.7212357E-2,-2.1238713E-2,-4.5293868E-2,2.2522138E-2,-3.3899244E-2,5.7249065E-3,-1.8386155E-2],"split_indices":[3,4,4,2,4,4,14,10,14,1,8,13,10,8,2,0,0,0,0,0,0,0,0,0,0,0,0,0,0,0,0],"split_type":[0,0,0,0,0,0,0,0,0,0,0,0,0,0,0,0,0,0,0,0,0,0,0,0,0,0,0,0,0,0,0],"sum_hessian":[2.2329E3,1.3963837E3,8.365163E2,1.00783057E3,3.8855304E2,5.579843E2,2.7853195E2,1.6223914E2,8.4559143E2,3.2700787E2,6.1545162E1,3.8857617E2,1.6940817E2,7.501109E1,2.0352087E2,1.5383304E2,8.4061E0,5.4765234E2,2.9793912E2,2.3367516E2,9.333273E1,4.0563168E1,2.0981997E1,3.1906497E2,6.951119E1,9.9760345E1,6.964783E1,6.734154E1,7.6695595E0,1.1194418E2,9.157668E1],"tree_param":{"num_deleted":"0","num_feature":"16029","num_nodes":"31","size_leaf_vector":"1"}},{"base_weights":[5.008015E-3,1.8989411E-1,-3.0377665E-1,1.1711838E-1,3.9939097E-1,-4.720971E-1,3.4532268E-2,5.080227E-1,9.357267E-2,3.1862104E-1,5.795337E-1,-1.007193E0,-4.4194376E-1,6.728205E-2,-1.0759199E0,-5.3898077E-2,2.9820323E-2,8.327904E-3,-1.9493438E-3,2.7690185E-2,8.242475E-3,3.2974932E-2,-1.3962324E-2,9.863127E-3,-5.5768467E-2,-5.741102E-3,-2.416767E-2,-6.4423652E-3,1.1594264E-2,-7.1860306E-2,-4.498329E-3],"categories":[],"categories_nodes":[],"categories_segments":[],"categories_sizes":[],"default_left":[0,0,0,0,0,0,0,0,0,0,0,0,0,0,0,0,0,0,0,0,0,0,0,0,0,0,0,0,0,0,0],"id":24,"left_children":[1,3,5,7,9,11,13,15,17,19,21,23,25,27,29,-1,-1,-1,-1,-1,-1,-1,-1,-1,-1,-1,-1,-1,-1,-1,-1],"loss_changes":[1.2725256E2,2.1209332E1,4.7552757E1,9.4893E0,5.039341E0,8.550278E0,1.0192568E1,8.862756E0,9.473481E0,8.953798E0,7.7328873E0,3.993145E0,7.1178055E0,8.786713E0,2.73137E0,0E0,0E0,0E0,0E0,0E0,0E0,0E0,0E0,0E0,0E0,0E0,0E0,0E0,0E0,0E0,0E0],"parents":[2147483647,0,0,1,1,2,2,3,3,4,4,5,5,6,6,7,7,8,8,9,9,10,10,11,11,12,12,13,13,14,14],"right_children":[2,4,6,8,10,12,14,16,18,20,22,24,26,28,30,-1,-1,-1,-1,-1,-1,-1,-1,-1,-1,-1,-1,-1,-1,-1,-1],"split_conditions":[1.5895095E-1,9.0947574E-1,8.463517E-1,-1.519952E0,6.9665736E-1,-1.5358018E0,1.6408712E0,-1.5669525E0,-5.381607E-1,-7.713898E-1,1.5342422E0,2.9837328E-1,-1.4261146E0,9.0042424E-1,1.1151553E0,-5.3898077E-2,2.9820323E-2,8.327904E-3,-1.9493438E-3,2.7690185E-2,8.242475E-3,3.2974932E-2,-1.3962324E-2,9.863127E-3,-5.5768467E-2,-5.741102E-3,-2.416767E-2,-6.4423652E-3,1.1594264E-2,-7.1860306E-2,-4.498329E-3],"split_indices":[3,4,4,1,1,8,14,11,3,1,8,3,4,3,5,0,0,0,0,0,0,0,0,0,0,0,0,0,0,0,0],"split_type":[0,0,0,0,0,0,0,0,0,0,0,0,0,0,0,0,0,0,0,0,0,0,0,0,0,0,0,0,0,0,0],"sum_hessian":[2.2269717E3,1.3931827E3,8.337889E2,1.0351484E3,3.580343E2,5.5651025E2,2.7727863E2,5.763984E1,9.775086E2,2.4911037E2,1.0892393E2,2.7958626E1,5.285516E2,2.702478E2,7.0308175E0,2.451579E0,5.518826E1,6.30247E2,3.4726157E2,9.745636E1,1.51654E2,9.985777E1,9.066159E0,2.2362514E0,2.5722374E1,5.981409E1,4.6873752E2,1.2341391E2,1.4683391E2,4.8104324E0,2.2203853E0],"tree_param":{"num_deleted":"0","num_feature":"16029","num_nodes":"31","size_leaf_vector":"1"}},{"base_weights":[-4.5084143E-3,1.7452917E-1,-3.0158573E-1,1.1132348E-1,4.2746422E-1,-4.65688E-1,2.2092106E-2,2.915449E-1,7.236319E-2,3.0048567E-1,5.931291E-1,-4.839009E-1,2.9960197E-1,-6.972468E-2,4.092114E-2,-1.0888506E-2,1.9442756E-2,6.366165E-3,-3.3542204E-3,3.052994E-2,1.3413519E-3,-4.834762E-2,3.113927E-2,-7.206688E-3,-2.610153E-2,-1.3172331E-2,4.7634628E-2,-3.8103964E-3,1.4485828E-2],"categories":[],"categories_nodes":[],"categories_segments":[],"categories_sizes":[],"default_left":[0,0,0,0,0,0,0,0,0,0,0,0,0,0,0,0,0,0,0,0,0,0,0,0,0,0,0,0,0],"id":25,"left_children":[1,3,5,7,9,11,13,15,17,19,21,23,25,-1,27,-1,-1,-1,-1,-1,-1,-1,-1,-1,-1,-1,-1,-1,-1],"loss_changes":[1.17749504E2,2.2036182E1,4.4228622E1,7.7484636E0,5.623947E0,7.845215E0,7.5527983E0,9.816654E0,6.991875E0,1.3406686E1,6.0918274E0,6.9205627E0,5.2004366E0,0E0,8.132331E0,0E0,0E0,0E0,0E0,0E0,0E0,0E0,0E0,0E0,0E0,0E0,0E0,0E0,0E0],"parents":[2147483647,0,0,1,1,2,2,3,3,4,4,5,5,6,6,7,7,8,8,9,9,10,10,11,11,12,12,14,14],"right_children":[2,4,6,8,10,12,14,16,18,20,22,24,26,-1,28,-1,-1,-1,-1,-1,-1,-1,-1,-1,-1,-1,-1,-1,-1],"split_conditions":[1.5895095E-1,1.0988479E0,8.463517E-1,-1.134683E0,3.2854125E-1,3.5053048E0,-1.6893954E0,-1.2998664E0,-3.797262E-1,-7.335545E-1,-1.684479E0,-1.4141285E0,6.082561E-1,-6.972468E-2,1.2679921E0,-1.0888506E-2,1.9442756E-2,6.366165E-3,-3.3542204E-3,3.052994E-2,1.3413519E-3,-4.834762E-2,3.113927E-2,-7.206688E-3,-2.610153E-2,-1.3172331E-2,4.7634628E-2,-3.8103964E-3,1.4485828E-2],"split_indices":[3,4,4,10,1,6,10,4,3,1,11,1,8,0,3,0,0,0,0,0,0,0,0,0,0,0,0,0,0],"split_type":[0,0,0,0,0,0,0,0,0,0,0,0,0,0,0,0,0,0,0,0,0,0,0,0,0,0,0,0,0],"sum_hessian":[2.211846E3,1.380364E3,8.3148206E2,1.1055415E3,2.7482248E2,5.514582E2,2.800239E2,1.9536137E2,9.101801E2,1.5716937E2,1.1765311E2,5.389984E2,1.2459778E1,2.7148356E0,2.7730908E2,3.1139809E1,1.6422157E2,6.529297E2,2.5725046E2,7.310017E1,8.406921E1,1.6052055E0,1.16047905E2,5.4867085E1,4.8413132E2,7.011539E0,5.448239E0,1.8901662E2,8.829245E1],"tree_param":{"num_deleted":"0","num_feature":"16029","num_nodes":"29","size_leaf_vector":"1"}},{"base_weights":[-1.9987311E-2,1.4500451E-1,-3.065366E-1,8.150207E-2,2.9865983E-1,-4.511062E-1,-2.019552E-2,6.947277E-2,8.4117216E-1,3.0901492E-1,-5.8858406E-2,-4.7881952E-1,-7.114577E-3,2.1991478E-1,-1.2420331E-1,6.0680653E-3,-3.739385E-3,4.9049582E-2,-2.1624178E-2,1.8008994E-2,4.831656E-3,1.5910342E-3,-2.558597E-2,2.1452898E-2,-3.9394606E-2,1.6965825E-2,-3.7243813E-2,1.0482062E-3,-1.6113201E-2],"categories":[],"categories_nodes":[],"categories_segments":[],"categories_sizes":[],"default_left":[0,0,0,0,0,0,0,0,0,0,0,0,0,0,0,0,0,0,0,0,0,0,0,0,0,0,0,0,0],"id":26,"left_children":[1,3,5,7,9,11,13,15,17,19,-1,21,23,25,27,-1,-1,-1,-1,-1,-1,-1,-1,-1,-1,-1,-1,-1,-1],"loss_changes":[1.0415558E2,1.361792E1,3.331315E1,8.994497E0,6.606182E0,6.5776443E0,6.797808E0,7.317181E0,3.1582527E0,4.3815613E0,0E0,8.47361E0,1.1385025E1,9.733761E0,5.464074E0,0E0,0E0,0E0,0E0,0E0,0E0,0E0,0E0,0E0,0E0,0E0,0E0,0E0,0E0],"parents":[2147483647,0,0,1,1,2,2,3,3,4,4,5,5,6,6,7,7,8,8,9,9,11,11,12,12,13,13,14,14],"right_children":[2,4,6,8,10,12,14,16,18,20,-1,22,24,26,28,-1,-1,-1,-1,-1,-1,-1,-1,-1,-1,-1,-1,-1,-1],"split_conditions":[1.9063786E-1,7.8322756E-1,8.463517E-1,3.5053048E0,3.335999E0,1.667247E0,-7.68329E-1,-3.2902718E-1,1E0,1E0,-5.8858406E-2,-1.5270389E0,5.541748E-1,1.2904962E0,1.3513441E0,6.0680653E-3,-3.739385E-3,4.9049582E-2,-2.1624178E-2,1.8008994E-2,4.831656E-3,1.5910342E-3,-2.558597E-2,2.1452898E-2,-3.9394606E-2,1.6965825E-2,-3.7243813E-2,1.0482062E-3,-1.6113201E-2],"split_indices":[3,4,4,6,7,3,14,3,16027,16021,0,1,0,8,4,0,0,0,0,0,0,0,0,0,0,0,0,0,0],"split_type":[0,0,0,0,0,0,0,0,0,0,0,0,0,0,0,0,0,0,0,0,0,0,0,0,0,0,0,0,0],"sum_hessian":[2.2010918E3,1.3971327E3,8.039591E2,9.8965857E2,4.0747412E2,5.338502E2,2.701089E2,9.7530615E2,1.4352425E1,4.054201E2,2.0539896E0,5.0241196E2,3.1438272E1,8.130209E1,1.888068E2,7.17419E2,2.5788718E2,1.31397505E1,1.2126743E0,3.2615103E2,7.926909E1,3.041245E1,4.719995E2,2.0459358E1,1.0978914E1,7.2925224E1,8.376863E0,1.0946743E2,7.9339355E1],"tree_param":{"num_deleted":"0","num_feature":"16029","num_nodes":"29","size_leaf_vector":"1"}},{"base_weights":[9.662442E-3,1.6545781E-1,-2.5925958E-1,1.0354026E-1,3.146398E-1,-4.002559E-1,1.5270407E-2,1.1759983E-1,-4.6179172E-1,2.7702954E-1,7.305309E-1,-4.1860554E-1,3.5789874E-1,1.8145847E-1,-2.0471612E-1,-7.789365E-4,8.541619E-3,-4.302905E-2,5.305568E-2,1.6972588E-2,1.2567345E-3,4.128375E-2,-4.538184E-2,-2.9955227E-2,-1.7469024E-2,-1.2936927E-2,5.922812E-2,2.3016004E-2,-8.747962E-3,-5.376751E-3,-5.1715374E-2],"categories":[],"categories_nodes":[],"categories_segments":[],"categories_sizes":[],"default_left":[0,0,0,0,0,0,0,0,0,0,0,0,0,0,0,0,0,0,0,0,0,0,0,0,0,0,0,0,0,0,0],"id":27,"left_children":[1,3,5,7,9,11,13,15,17,19,21,23,25,27,29,-1,-1,-1,-1,-1,-1,-1,-1,-1,-1,-1,-1,-1,-1,-1,-1],"loss_changes":[9.235995E1,1.2860233E1,3.1307411E1,7.9062653E0,6.193634E0,7.5829544E0,1.0103955E1,6.8418427E0,1.5595012E1,5.9131355E0,5.939764E0,6.314781E0,7.017481E0,1.5723589E1,9.480061E0,0E0,0E0,0E0,0E0,0E0,0E0,0E0,0E0,0E0,0E0,0E0,0E0,0E0,0E0,0E0,0E0],"parents":[2147483647,0,0,1,1,2,2,3,3,4,4,5,5,6,6,7,7,8,8,9,9,10,10,11,11,12,12,13,13,14,14],"right_children":[2,4,6,8,10,12,14,16,18,20,22,24,26,28,30,-1,-1,-1,-1,-1,-1,-1,-1,-1,-1,-1,-1,-1,-1,-1,-1],"split_conditions":[1.9063786E-1,7.8322756E-1,8.463517E-1,7.201035E-1,1.4837271E0,3.5053048E0,4.804508E-2,-9.842462E-1,1.1462826E0,1E0,1.6008328E0,-7.17311E-1,5.464953E-1,1.2794113E-1,1.3457053E0,-7.789365E-4,8.541619E-3,-4.302905E-2,5.305568E-2,1.6972588E-2,1.2567345E-3,4.128375E-2,-4.538184E-2,-2.9955227E-2,-1.7469024E-2,-1.2936927E-2,5.922812E-2,2.3016004E-2,-8.747962E-3,-5.376751E-3,-5.1715374E-2],"split_indices":[3,4,4,4,1,6,2,4,1,16021,2,8,14,0,8,0,0,0,0,0,0,0,0,0,0,0,0,0,0,0,0],"split_type":[0,0,0,0,0,0,0,0,0,0,0,0,0,0,0,0,0,0,0,0,0,0,0,0,0,0,0,0,0,0,0],"sum_hessian":[2.202439E3,1.3947811E3,8.0765784E2,9.868754E2,4.079057E2,5.3330096E2,2.7435684E2,9.6370056E2,2.3174864E1,3.7560474E2,3.230095E1,5.2113574E2,1.2165214E1,1.5638869E2,1.1796816E2,2.7540143E2,6.8829913E2,1.8710281E1,4.4645824E0,3.0073245E2,7.487228E1,3.0996655E1,1.3042955E0,1.4234018E2,3.7879556E2,7.361226E0,4.803987E0,8.7576904E1,6.881178E1,1.0660922E2,1.1358935E1],"tree_param":{"num_deleted":"0","num_feature":"16029","num_nodes":"31","size_leaf_vector":"1"}},{"base_weights":[-9.3064655E-4,1.4896043E-1,-2.5963107E-1,4.18583E-1,1.2794602E-1,-3.5286474E-1,-1.3796775E-1,4.7537425E-1,-9.232335E-1,5.5488333E-2,2.1863933E-1,-4.9346024E-1,-4.9214505E-2,9.1053224E-1,-1.6895778E-1,2.7400268E-2,-1.4108509E-2,5.2753715E-3,-7.184252E-2,9.912533E-3,-1.387799E-3,1.2565441E-2,-2.9793391E-2,-1.9981606E-2,-4.287229E-2,1.5328887E-3,-4.4614937E-2,-4.9695615E-2,7.057797E-2,-1.7740918E-2,-5.097225E-4],"categories":[],"categories_nodes":[],"categories_segments":[],"categories_sizes":[],"default_left":[0,0,0,0,0,0,0,0,0,0,0,0,0,0,0,0,0,0,0,0,0,0,0,0,0,0,0,0,0,0,0],"id":28,"left_children":[1,3,5,7,9,11,13,15,17,19,21,23,25,27,29,-1,-1,-1,-1,-1,-1,-1,-1,-1,-1,-1,-1,-1,-1,-1,-1],"loss_changes":[8.447977E1,7.762041E0,9.0169525E0,8.005611E0,8.406521E0,1.9265308E1,1.147394E1,5.4325294E0,2.4616063E0,8.484664E0,1.5280319E1,1.0200958E1,9.731423E0,1.1095483E1,1.0006251E1,0E0,0E0,0E0,0E0,0E0,0E0,0E0,0E0,0E0,0E0,0E0,0E0,0E0,0E0,0E0,0E0],"parents":[2147483647,0,0,1,1,2,2,3,3,4,4,5,5,6,6,7,7,8,8,9,9,10,10,11,11,12,12,13,13,14,14],"right_children":[2,4,6,8,10,12,14,16,18,20,22,24,26,28,30,-1,-1,-1,-1,-1,-1,-1,-1,-1,-1,-1,-1,-1,-1,-1,-1],"split_conditions":[1.9063786E-1,-1.4816366E0,2.7455327E-1,1.5795846E0,3.2854125E-1,1.2679921E0,3.0104342E-1,1.4808176E0,-5.1140934E-1,-8.7535036E-1,1.6921734E0,1E0,7.008586E-2,-7.986979E-1,-1.02281556E-1,2.7400268E-2,-1.4108509E-2,5.2753715E-3,-7.184252E-2,9.912533E-3,-1.387799E-3,1.2565441E-2,-2.9793391E-2,-1.9981606E-2,-4.287229E-2,1.5328887E-3,-4.4614937E-2,-4.9695615E-2,7.057797E-2,-1.7740918E-2,-5.097225E-4],"split_indices":[3,1,8,14,1,3,8,5,0,1,2,16019,8,14,1,0,0,0,0,0,0,0,0,0,0,0,0,0,0,0,0],"split_type":[0,0,0,0,0,0,0,0,0,0,0,0,0,0,0,0,0,0,0,0,0,0,0,0,0,0,0,0,0,0,0],"sum_hessian":[2.1766143E3,1.3783958E3,7.982185E2,9.829648E1,1.2800992E3,4.5083325E2,3.4738525E2,9.49246E1,3.371879E0,7.124848E2,5.676144E2,3.0772568E2,1.4310757E2,9.157971E0,3.382273E2,8.6872154E1,8.052442E0,1.3874624E0,1.9844167E0,2.6191843E2,4.5056638E2,5.463904E2,2.122401E1,2.463258E2,6.1399876E1,1.3160335E2,1.1504228E1,1.7025795E0,7.455392E0,1.552476E2,1.8297969E2],"tree_param":{"num_deleted":"0","num_feature":"16029","num_nodes":"31","size_leaf_vector":"1"}},{"base_weights":[-5.717604E-3,1.3365583E-1,-2.403625E-1,7.882997E-2,2.9807475E-1,-3.745145E-1,1.6514191E-2,2.9660812E-1,3.917178E-2,1.846202E-1,4.7308958E-1,-4.5651275E-1,-1.8519756E-1,-6.399804E-2,4.7775137E-1,-1.4084934E-2,2.018926E-2,4.5159487E-3,-5.532554E-3,5.656402E-3,3.4687385E-2,-4.120999E-2,2.831218E-2,-2.339126E-2,6.1991256E-2,-3.0117694E-2,1.5353066E-3,-1.5480764E-3,-5.8101505E-2,3.1101627E-2,-3.8878713E-2],"categories":[],"categories_nodes":[],"categories_segments":[],"categories_sizes":[],"default_left":[0,0,0,0,0,0,0,0,0,0,0,0,0,0,0,0,0,0,0,0,0,0,0,0,0,0,0,0,0,0,0],"id":29,"left_children":[1,3,5,7,9,11,13,15,17,19,21,23,25,27,29,-1,-1,-1,-1,-1,-1,-1,-1,-1,-1,-1,-1,-1,-1,-1,-1],"loss_changes":[7.106399E1,1.2265675E1,2.790995E1,8.830004E0,6.6747284E0,8.17366E0,1.0382245E1,9.879116E0,6.6551704E0,7.501651E0,1.6575506E1,7.6901245E0,1.4650453E1,8.6051445E0,8.008396E0,0E0,0E0,0E0,0E0,0E0,0E0,0E0,0E0,0E0,0E0,0E0,0E0,0E0,0E0,0E0,0E0],"parents":[2147483647,0,0,1,1,2,2,3,3,4,4,5,5,6,6,7,7,8,8,9,9,10,10,11,11,12,12,13,13,14,14],"right_children":[2,4,6,8,10,12,14,16,18,20,22,24,26,28,30,-1,-1,-1,-1,-1,-1,-1,-1,-1,-1,-1,-1,-1,-1,-1,-1],"split_conditions":[1.5895095E-1,9.0947574E-1,8.463517E-1,-1.2009897E0,-4.8112428E-1,7.494932E-1,1.2927905E0,-1.3629905E0,-3.2902718E-1,1.3944397E0,-1.454943E0,6.128254E0,-4.850746E-1,1.6253209E0,2.1015687E0,-1.4084934E-2,2.018926E-2,4.5159487E-3,-5.532554E-3,5.656402E-3,3.4687385E-2,-4.120999E-2,2.831218E-2,-2.339126E-2,6.1991256E-2,-3.0117694E-2,1.5353066E-3,-1.5480764E-3,-5.8101505E-2,3.1101627E-2,-3.8878713E-2],"split_indices":[3,4,4,10,3,5,10,4,3,1,8,13,8,14,6,0,0,0,0,0,0,0,0,0,0,0,0,0,0,0,0],"split_type":[0,0,0,0,0,0,0,0,0,0,0,0,0,0,0,0,0,0,0,0,0,0,0,0,0,0,0,0,0,0,0],"sum_hessian":[2.1710115E3,1.3622803E3,8.087314E2,1.0227285E3,3.395517E2,5.3097534E2,2.77756E2,1.5655368E2,8.6617487E2,2.0725323E2,1.3229846E2,3.6951645E2,1.614589E2,2.3721048E2,4.0545532E1,2.4222954E1,1.3233073E2,6.460281E2,2.2014677E2,1.828057E2,2.4447548E1,8.337688E0,1.2396077E2,3.67788E2,1.7284725E0,5.4454746E1,1.0700415E2,2.3128014E2,5.930334E0,3.68183E1,3.7272344E0],"tree_param":{"num_deleted":"0","num_feature":"16029","num_nodes":"31","size_leaf_vector":"1"}},{"base_weights":[-1.2672197E-2,1.22661725E-1,-2.504306E-1,6.7039296E-2,2.7244344E-1,-3.7883797E-1,-6.07539E-3,5.4978248E-2,7.9750055E-1,3.1987274E-1,-1.7805371E-2,-3.8651732E-1,9.826798E-1,-1.9360086E-1,1.4334913E-1,4.2176E-3,-1.1507568E-2,4.8598453E-2,-2.8676972E-2,1.928588E-2,2.063232E-3,2.2264035E-2,-1.4535903E-2,3.3050798E-2,-1.977061E-2,1.0237849E-2,6.6726066E-2,-2.822849E-2,5.709151E-3,3.5382938E-2,3.2254388E-3],"categories":[],"categories_nodes":[],"categories_segments":[],"categories_sizes":[],"default_left":[0,0,0,0,0,0,0,0,0,0,0,0,0,0,0,0,0,0,0,0,0,0,0,0,0,0,0,0,0,0,0],"id":30,"left_children":[1,3,5,7,9,11,13,15,17,19,21,23,25,27,29,-1,-1,-1,-1,-1,-1,-1,-1,-1,-1,-1,-1,-1,-1,-1,-1],"loss_changes":[7.00024E1,1.1532703E1,2.4758385E1,8.875048E0,5.169739E0,5.7882767E0,7.6733513E0,8.369408E0,4.473181E0,5.9000626E0,6.908059E0,5.0608826E0,5.9809923E-1,1.3928619E1,6.73592E0,0E0,0E0,0E0,0E0,0E0,0E0,0E0,0E0,0E0,0E0,0E0,0E0,0E0,0E0,0E0,0E0],"parents":[2147483647,0,0,1,1,2,2,3,3,4,4,5,5,6,6,7,7,8,8,9,9,10,10,11,11,12,12,13,13,14,14],"right_children":[2,4,6,8,10,12,14,16,18,20,22,24,26,28,30,-1,-1,-1,-1,-1,-1,-1,-1,-1,-1,-1,-1,-1,-1,-1,-1],"split_conditions":[1.9063786E-1,8.463517E-1,8.463517E-1,3.5053048E0,1E0,5.013201E0,9.0042424E-1,5.938554E-1,1.418152E0,1E0,-1.1338743E0,-3.9463084E0,9.5746064E-1,3.2210697E-3,-1.2616488E0,4.2176E-3,-1.1507568E-2,4.8598453E-2,-2.8676972E-2,1.928588E-2,2.063232E-3,2.2264035E-2,-1.4535903E-2,3.3050798E-2,-1.977061E-2,1.0237849E-2,6.6726066E-2,-2.822849E-2,5.709151E-3,3.5382938E-2,3.2254388E-3],"split_indices":[3,4,4,6,16022,12,3,4,2,16021,3,7,3,8,5,0,0,0,0,0,0,0,0,0,0,0,0,0,0,0,0],"split_type":[0,0,0,0,0,0,0,0,0,0,0,0,0,0,0,0,0,0,0,0,0,0,0,0,0,0,0,0,0,0,0],"sum_hessian":[2.1736018E3,1.3854673E3,7.881346E2,1.0113452E3,3.741221E2,5.162812E2,2.718534E2,9.9597534E2,1.5369833E1,3.2148627E2,5.263583E1,5.1409766E2,2.1835365E0,1.2042554E2,1.5142786E2,9.035924E2,9.238298E1,1.3892984E1,1.4768484E0,2.5972073E2,6.1765545E1,1.928348E1,3.335235E1,3.7112865E0,5.1038635E2,1.1726848E0,1.0108517E0,5.4229248E1,6.619629E1,1.7585024E1,1.3384283E2],"tree_param":{"num_deleted":"0","num_feature":"16029","num_nodes":"31","size_leaf_vector":"1"}},{"base_weights":[-9.506466E-3,1.2061038E-1,-2.2756343E-1,6.708567E-2,2.5311252E-1,-3.6786753E-1,3.7130203E-2,2.8678167E-1,3.248062E-2,1.8980461E-1,4.4656315E-1,-6.0364313E-2,-3.5048363E-1,6.510736E-2,-1.1425036E0,-6.2387235E-2,1.655752E-2,-1.4458083E-2,2.8087113E-3,6.4453306E-3,2.7438616E-2,2.4841884E-2,-5.539453E-2,-1.7921094E-2,7.079195E-2,1.1724033E-2,-7.638027E-3,-2.18876E-3,-6.8114944E-2],"categories":[],"categories_nodes":[],"categories_segments":[],"categories_sizes":[],"default_left":[0,0,0,0,0,0,0,0,0,0,0,0,0,0,0,0,0,0,0,0,0,0,0,0,0,0,0,0,0],"id":31,"left_children":[1,3,5,7,9,11,13,15,17,19,21,-1,23,25,27,-1,-1,-1,-1,-1,-1,-1,-1,-1,-1,-1,-1,-1,-1],"loss_changes":[6.187641E1,9.669991E0,3.0280338E1,7.3974137E0,4.7238407E0,7.3508453E0,9.422297E0,9.430756E0,6.4390483E0,6.4341564E0,8.058374E0,0E0,7.8454895E0,1.0280646E1,1.5380926E0,0E0,0E0,0E0,0E0,0E0,0E0,0E0,0E0,0E0,0E0,0E0,0E0,0E0,0E0],"parents":[2147483647,0,0,1,1,2,2,3,3,4,4,5,5,6,6,7,7,8,8,9,9,10,10,12,12,13,13,14,14],"right_children":[2,4,6,8,10,12,14,16,18,20,22,-1,24,26,28,-1,-1,-1,-1,-1,-1,-1,-1,-1,-1,-1,-1,-1,-1],"split_conditions":[1.5895095E-1,7.8322756E-1,8.463517E-1,-1.2737653E0,-2.4664126E-1,-1.6688601E0,1.6408712E0,-1.627255E0,-1.4854963E0,1.2484546E0,1.651482E0,-6.0364313E-2,6.128254E0,4.804508E-2,-1.3638767E0,-6.2387235E-2,1.655752E-2,-1.4458083E-2,2.8087113E-3,6.4453306E-3,2.7438616E-2,2.4841884E-2,-5.539453E-2,-1.7921094E-2,7.079195E-2,1.1724033E-2,-7.638027E-3,-2.18876E-3,-6.8114944E-2],"split_indices":[3,4,4,10,3,11,14,14,11,14,14,0,13,2,0,0,0,0,0,0,0,0,0,0,0,0,0,0,0],"split_type":[0,0,0,0,0,0,0,0,0,0,0,0,0,0,0,0,0,0,0,0,0,0,0,0,0,0,0,0,0],"sum_hessian":[2.1788618E3,1.3648743E3,8.139877E2,9.732377E2,3.9163654E2,5.317417E2,2.82246E2,1.3144563E2,8.4179205E2,2.96565E2,9.507153E1,9.399878E0,5.223418E2,2.7663004E2,5.615977E0,2.9316084E0,1.2851402E2,5.69869E1,7.848052E2,2.5471269E2,4.185229E1,9.2752106E1,2.3194318E0,5.2079834E2,1.5434989E0,1.5559344E2,1.2103659E2,1.1360703E0,4.4799066E0],"tree_param":{"num_deleted":"0","num_feature":"16029","num_nodes":"29","size_leaf_vector":"1"}},{"base_weights":[3.5270792E-3,1.3075869E-1,-2.1460798E-1,8.4307775E-2,3.2343706E-1,-3.3384812E-1,1.3901947E-2,2.4609828E-1,3.833092E-2,2.0407408E-1,4.8533392E-1,7.546555E-2,-3.6646444E-1,-2.6689658E-1,1.1418869E-1,4.0902803E-3,2.9492665E-2,-2.4711527E-3,9.068076E-3,2.5560532E-2,-3.729146E-3,-5.7168365E-2,2.6142089E-2,-1.2743632E-2,5.4781016E-2,-2.85785E-2,-1.1801458E-2,-3.1378713E-2,1.9222792E-2,7.1612373E-3,-6.909815E-2],"categories":[],"categories_nodes":[],"categories_segments":[],"categories_sizes":[],"default_left":[0,0,0,0,0,0,0,0,0,0,0,0,0,0,0,0,0,0,0,0,0,0,0,0,0,0,0,0,0,0,0],"id":32,"left_children":[1,3,5,7,9,11,13,15,17,19,21,23,25,27,29,-1,-1,-1,-1,-1,-1,-1,-1,-1,-1,-1,-1,-1,-1,-1,-1],"loss_changes":[5.971564E1,1.2135557E1,2.1602623E1,8.145788E0,4.995392E0,6.9818687E0,7.711346E0,1.364297E1,1.0739392E1,1.3173155E1,7.3880844E0,1.3514463E1,1.2776863E1,1.717443E1,8.959235E0,0E0,0E0,0E0,0E0,0E0,0E0,0E0,0E0,0E0,0E0,0E0,0E0,0E0,0E0,0E0,0E0],"parents":[2147483647,0,0,1,1,2,2,3,3,4,4,5,5,6,6,7,7,8,8,9,9,10,10,11,11,12,12,13,13,14,14],"right_children":[2,4,6,8,10,12,14,16,18,20,22,24,26,28,30,-1,-1,-1,-1,-1,-1,-1,-1,-1,-1,-1,-1,-1,-1,-1,-1],"split_conditions":[1.779631E-1,1.0988479E0,8.463517E-1,-1.0095408E0,3.2854125E-1,-1.5100803E0,-7.313782E-1,7.354613E-1,7.4284714E-1,-7.831437E-1,-1.684479E0,9.547879E-1,-2.806067E-1,1.2553174E0,1.6541715E0,4.0902803E-3,2.9492665E-2,-2.4711527E-3,9.068076E-3,2.5560532E-2,-3.729146E-3,-5.7168365E-2,2.6142089E-2,-1.2743632E-2,5.4781016E-2,-2.85785E-2,-1.1801458E-2,-3.1378713E-2,1.9222792E-2,7.1612373E-3,-6.909815E-2],"split_indices":[3,4,4,1,1,1,8,11,1,1,11,10,1,3,11,0,0,0,0,0,0,0,0,0,0,0,0,0,0,0,0],"split_type":[0,0,0,0,0,0,0,0,0,0,0,0,0,0,0,0,0,0,0,0,0,0,0,0,0,0,0,0,0,0,0],"sum_hessian":[2.149619E3,1.3579615E3,7.916574E2,1.0953356E3,2.6262595E2,5.1990283E2,2.7175458E2,2.414237E2,8.539118E2,1.5247212E2,1.1015384E2,3.827411E1,4.8162875E2,7.107799E1,2.0067659E2,1.6418965E2,7.723406E1,5.296243E2,3.2428748E2,7.21327E1,8.033942E1,1.8159622E0,1.08337875E2,2.9478714E1,8.795394E0,1.8590956E2,2.9571918E2,4.576998E1,2.5308004E1,1.9774324E2,2.933363E0],"tree_param":{"num_deleted":"0","num_feature":"16029","num_nodes":"31","size_leaf_vector":"1"}},{"base_weights":[1.0426688E-2,1.2651655E-1,-1.9507606E-1,7.581482E-2,2.6182532E-1,-3.3704293E-1,6.495418E-2,4.6724416E-2,3.4162173E-1,-7.018918E-1,2.7624252E-1,-2.8929994E-1,-6.351584E-1,-1.3101038E-1,2.2426735E-1,4.910622E-3,-5.183257E-3,2.398551E-2,-1.7304346E-2,-7.6215364E-2,9.9891415E-3,1.6290588E-2,1.0461635E-3,-2.6785908E-2,-9.981651E-3,3.230536E-2,-3.880103E-2,-2.0166794E-2,4.4880523E-3,3.140235E-2,3.94785E-3],"categories":[],"categories_nodes":[],"categories_segments":[],"categories_sizes":[],"default_left":[0,0,0,0,0,0,0,0,0,0,0,0,0,0,0,0,0,0,0,0,0,0,0,0,0,0,0,0,0,0,0],"id":33,"left_children":[1,3,5,7,9,11,13,15,17,19,21,23,25,27,29,-1,-1,-1,-1,-1,-1,-1,-1,-1,-1,-1,-1,-1,-1,-1,-1],"loss_changes":[5.1644886E1,9.469984E0,2.8870544E1,7.7755446E0,5.426956E0,7.0132027E0,8.671603E0,7.051894E0,9.590418E0,4.630657E0,4.698742E0,9.564056E0,1.2948351E1,7.537113E0,8.930782E0,0E0,0E0,0E0,0E0,0E0,0E0,0E0,0E0,0E0,0E0,0E0,0E0,0E0,0E0,0E0,0E0],"parents":[2147483647,0,0,1,1,2,2,3,3,4,4,5,5,6,6,7,7,8,8,9,9,10,10,11,11,12,12,13,13,14,14],"right_children":[2,4,6,8,10,12,14,16,18,20,22,24,26,28,30,-1,-1,-1,-1,-1,-1,-1,-1,-1,-1,-1,-1,-1,-1,-1,-1],"split_conditions":[1.9063786E-1,8.463517E-1,8.463517E-1,2.1015687E0,-1.7023333E0,1E0,-3.032094E-2,-3.1001505E-1,1E0,7.6977354E-1,1.6038404E0,-7.17311E-1,-1.5270389E0,9.194364E-1,-8.137459E-1,4.910622E-3,-5.183257E-3,2.398551E-2,-1.7304346E-2,-7.6215364E-2,9.9891415E-3,1.6290588E-2,1.0461635E-3,-2.6785908E-2,-9.981651E-3,3.230536E-2,-3.880103E-2,-2.0166794E-2,4.4880523E-3,3.140235E-2,3.94785E-3],"split_indices":[3,4,4,6,10,16027,8,3,16017,1,4,8,1,3,11,0,0,0,0,0,0,0,0,0,0,0,0,0,0,0,0],"split_type":[0,0,0,0,0,0,0,0,0,0,0,0,0,0,0,0,0,0,0,0,0,0,0,0,0,0,0,0,0,0,0],"sum_hessian":[2.1627537E3,1.3822792E3,7.804743E2,1.0066401E3,3.7563913E2,5.0465518E2,2.7581915E2,9.08399E2,9.82411E1,4.833889E0,3.7080524E2,4.3669E2,6.7965164E1,1.2376213E2,1.5205704E2,6.769741E2,2.3142485E2,8.2065254E1,1.6175844E1,2.1669183E0,2.6669705E0,3.1028796E2,6.051729E1,1.1518092E2,3.215091E2,6.376695E0,6.158847E1,5.5041065E1,6.872107E1,3.936099E1,1.12696045E2],"tree_param":{"num_deleted":"0","num_feature":"16029","num_nodes":"31","size_leaf_vector":"1"}},{"base_weights":[2.6006456E-3,1.1011584E-1,-1.8890148E-1,3.7820023E-1,8.930128E-2,-2.759581E-1,-2.6334008E-2,-8.400125E-2,5.993498E-1,6.552881E-2,3.0137765E-1,-5.729002E-1,-2.3191358E-1,-1.9518705E-1,1.06077366E-1,2.5809005E-2,-2.7110804E-2,5.6087937E-2,2.0591607E-2,3.7040904E-3,-2.8399104E-2,-8.672007E-3,2.20714E-2,6.0455956E-2,-3.112488E-2,5.2841347E-2,-1.2150755E-2,-1.3038896E-2,5.200994E-2,7.3191635E-3,-5.9036482E-2],"categories":[],"categories_nodes":[],"categories_segments":[],"categories_sizes":[],"default_left":[0,0,0,0,0,0,0,0,0,0,0,0,0,0,0,0,0,0,0,0,0,0,0,0,0,0,0,0,0,0,0],"id":34,"left_children":[1,3,5,7,9,11,13,15,17,19,21,23,25,27,29,-1,-1,-1,-1,-1,-1,-1,-1,-1,-1,-1,-1,-1,-1,-1,-1],"loss_changes":[4.41938E1,7.6368237E0,1.0915421E1,1.0142215E1,6.4179087E0,6.4393806E0,6.0633035E0,9.308235E0,6.0918217E0,6.2704577E0,8.616888E0,6.429451E0,6.5416985E0,9.925064E0,8.063007E0,0E0,0E0,0E0,0E0,0E0,0E0,0E0,0E0,0E0,0E0,0E0,0E0,0E0,0E0,0E0,0E0],"parents":[2147483647,0,0,1,1,2,2,3,3,4,4,5,5,6,6,7,7,8,8,9,9,10,10,11,11,12,12,13,13,14,14],"right_children":[2,4,6,8,10,12,14,16,18,20,22,24,26,28,30,-1,-1,-1,-1,-1,-1,-1,-1,-1,-1,-1,-1,-1,-1,-1,-1],"split_conditions":[1.9063786E-1,-1.4816366E0,8.463517E-1,-3.5300553E-1,1.426667E0,-1.2729099E0,9.0042424E-1,-6.759133E-1,2.5738837E-2,1.3774426E0,-7.317499E-1,-1.6490914E0,-3.9463084E0,1.6437311E0,1.5745364E0,2.5809005E-2,-2.7110804E-2,5.6087937E-2,2.0591607E-2,3.7040904E-3,-2.8399104E-2,-8.672007E-3,2.20714E-2,6.0455956E-2,-3.112488E-2,5.2841347E-2,-1.2150755E-2,-1.3038896E-2,5.200994E-2,7.3191635E-3,-5.9036482E-2],"split_indices":[3,1,4,4,1,8,3,8,4,1,4,1,7,10,11,0,0,0,0,0,0,0,0,0,0,0,0,0,0,0,0],"split_type":[0,0,0,0,0,0,0,0,0,0,0,0,0,0,0,0,0,0,0,0,0,0,0,0,0,0,0,0,0,0,0],"sum_hessian":[2.1444255E3,1.3736443E3,7.707812E2,9.7731125E1,1.2759131E3,5.015164E2,2.6926483E2,3.1828949E1,6.5902176E1,1.148484E3,1.27429054E2,6.3228832E1,4.3828757E2,1.1813858E2,1.5112625E2,1.3725041E1,1.8103907E1,1.6091217E1,4.981096E1,1.1340563E3,1.4427768E1,2.8970589E1,9.8458466E1,1.0790828E0,6.214975E1,2.938764E0,4.353488E2,1.12931564E2,5.207015E0,1.473957E2,3.7305472E0],"tree_param":{"num_deleted":"0","num_feature":"16029","num_nodes":"31","size_leaf_vector":"1"}},{"base_weights":[3.8459783E-3,9.75933E-2,-1.8347196E-1,1.1693235E-1,-1.8876038E-1,-3.2753506E-1,7.254315E-2,1.0676318E-1,6.952466E-1,-5.031528E-1,4.7320637E-1,-3.3971155E-1,7.6219773E-1,1.4934075E-1,-4.2582154E-1,-2.024816E-2,5.8346516E-3,6.099219E-2,4.200646E-3,-7.3214166E-2,-1.1875036E-2,5.8561247E-2,-1.948601E-3,-1.7894303E-2,2.0630818E-2,9.5211595E-2,-4.4105176E-2,1.707545E-2,-4.820505E-3,-6.61323E-2,3.0125938E-3],"categories":[],"categories_nodes":[],"categories_segments":[],"categories_sizes":[],"default_left":[0,0,0,0,0,0,0,0,0,0,0,0,0,0,0,0,0,0,0,0,0,0,0,0,0,0,0,0,0,0,0],"id":35,"left_children":[1,3,5,7,9,11,13,15,17,19,21,23,25,27,29,-1,-1,-1,-1,-1,-1,-1,-1,-1,-1,-1,-1,-1,-1,-1,-1],"loss_changes":[3.787197E1,7.981497E0,2.6554783E1,7.8473186E0,1.9241226E1,6.3693237E0,1.0008685E1,6.7794724E0,7.302887E0,1.55826025E1,1.0741453E1,6.3840218E0,1.181439E1,1.0700682E1,1.5317358E1,0E0,0E0,0E0,0E0,0E0,0E0,0E0,0E0,0E0,0E0,0E0,0E0,0E0,0E0,0E0,0E0],"parents":[2147483647,0,0,1,1,2,2,3,3,4,4,5,5,6,6,7,7,8,8,9,9,10,10,11,11,12,12,13,13,14,14],"right_children":[2,4,6,8,10,12,14,16,18,20,22,24,26,28,30,-1,-1,-1,-1,-1,-1,-1,-1,-1,-1,-1,-1,-1,-1,-1,-1],"split_conditions":[3.1104803E-1,1.6008328E0,8.463517E-1,3.5053048E0,7.0919645E-1,1.7090126E0,1.1525915E0,-1.6480324E0,-3.5106394E-1,-1.2162602E0,-7.713898E-1,3.5053048E0,-4.9355924E-2,4.804508E-2,-5.5313593E-1,-2.024816E-2,5.8346516E-3,6.099219E-2,4.200646E-3,-7.3214166E-2,-1.1875036E-2,5.8561247E-2,-1.948601E-3,-1.7894303E-2,2.0630818E-2,9.5211595E-2,-4.4105176E-2,1.707545E-2,-4.820505E-3,-6.61323E-2,3.0125938E-3],"split_indices":[3,2,4,6,11,11,14,0,11,3,1,6,14,2,1,0,0,0,0,0,0,0,0,0,0,0,0,0,0,0,0],"split_type":[0,0,0,0,0,0,0,0,0,0,0,0,0,0,0,0,0,0,0,0,0,0,0,0,0,0,0,0,0,0,0],"sum_hessian":[2.1546301E3,1.4362877E3,7.1834235E2,1.345978E3,9.03097E1,4.594976E2,2.5884473E2,1.3238833E3,2.2094769E1,6.1392197E1,2.8917503E1,4.5510065E2,4.396954E0,2.2488974E2,3.395499E1,2.4443163E1,1.2994402E3,1.1354206E1,1.0740563E1,1.2317042E1,4.9075153E1,1.169386E1,1.7223644E1,4.4487772E2,1.0222937E1,2.5014887E0,1.8954655E0,1.25984665E2,9.8905075E1,1.1329865E1,2.2625124E1],"tree_param":{"num_deleted":"0","num_feature":"16029","num_nodes":"31","size_leaf_vector":"1"}},{"base_weights":[1.0550989E-2,1.0121014E-1,-1.7293547E-1,1.7148645E-1,3.793108E-2,-2.9337808E-1,1.0008676E-1,1.2900947E-1,4.5105764E-1,-7.37454E-1,5.3735845E-2,-2.2660924E-1,-6.060165E-1,4.3160334E-1,-4.3428108E-2,4.2833127E-3,1.862174E-2,2.6513815E-2,-2.5306314E-2,-7.2364755E-2,7.748246E-3,2.3087367E-2,1.4552411E-3,-1.4609704E-2,8.993546E-3,-8.463732E-3,-4.016512E-2,2.516836E-2,-5.1234998E-2,-7.974886E-3,1.7119667E-2],"categories":[],"categories_nodes":[],"categories_segments":[],"categories_sizes":[],"default_left":[0,0,0,0,0,0,0,0,0,0,0,0,0,0,0,0,0,0,0,0,0,0,0,0,0,0,0,0,0,0,0],"id":36,"left_children":[1,3,5,7,9,11,13,15,17,19,21,23,25,27,29,-1,-1,-1,-1,-1,-1,-1,-1,-1,-1,-1,-1,-1,-1,-1,-1],"loss_changes":[3.5624794E1,6.3674097E0,2.3318758E1,8.003021E0,9.29788E0,1.0126587E1,1.0368916E1,6.200326E0,7.0270767E0,9.827367E0,7.436651E0,1.0896442E1,7.2682133E0,7.394099E0,6.8941135E0,0E0,0E0,0E0,0E0,0E0,0E0,0E0,0E0,0E0,0E0,0E0,0E0,0E0,0E0,0E0,0E0],"parents":[2147483647,0,0,1,1,2,2,3,3,4,4,5,5,6,6,7,7,8,8,9,9,10,10,11,11,12,12,13,13,14,14],"right_children":[2,4,6,8,10,12,14,16,18,20,22,24,26,28,30,-1,-1,-1,-1,-1,-1,-1,-1,-1,-1,-1,-1,-1,-1,-1,-1],"split_conditions":[3.1104803E-1,-1.3416232E-1,9.725998E-1,1.28822E0,-1.636768E0,1.7440795E0,-7.68329E-1,1E0,1.5261358E-1,3.4105796E-1,-1.4724836E0,1.5531743E0,7.2297764E-1,1.6418976E0,1.1151553E0,4.2833127E-3,1.862174E-2,2.6513815E-2,-2.5306314E-2,-7.2364755E-2,7.748246E-3,2.3087367E-2,1.4552411E-3,-1.4609704E-2,8.993546E-3,-8.463732E-3,-4.016512E-2,2.516836E-2,-5.1234998E-2,-7.974886E-3,1.7119667E-2],"split_indices":[3,8,4,4,14,13,14,16022,3,0,14,3,3,3,5,0,0,0,0,0,0,0,0,0,0,0,0,0,0,0,0],"split_type":[0,0,0,0,0,0,0,0,0,0,0,0,0,0,0,0,0,0,0,0,0,0,0,0,0,0,0,0,0,0,0],"sum_hessian":[2.1395396E3,1.4323003E3,7.072394E2,6.778193E2,7.54481E2,4.9069626E2,2.1654315E2,5.8968604E2,8.813321E1,1.4159363E1,7.4032166E2,4.0576385E2,8.4932396E1,6.481481E1,1.5172833E2,5.017064E2,8.797965E1,8.1808556E1,6.3246546E0,7.5401044E0,6.619259E0,4.113734E1,6.991843E2,3.4963248E2,5.6131386E1,2.7005953E1,5.792644E1,6.239448E1,2.4203265E0,1.1708989E2,3.4638447E1],"tree_param":{"num_deleted":"0","num_feature":"16029","num_nodes":"31","size_leaf_vector":"1"}},{"base_weights":[-8.337799E-3,9.338943E-2,-2.1713914E-1,7.271311E-2,2.779923E-1,-3.270198E-1,3.1213586E-3,6.2367935E-2,4.8455152E-1,3.4204555E-1,-4.390108E-1,-9.7594684E-1,-2.9229447E-1,3.081788E-1,-1.0725805E-1,5.0386902E-2,2.8983492E-3,2.798429E-3,4.280817E-2,1.8418116E-2,-6.971433E-2,1.5157014E-2,-9.720924E-2,-5.6923162E-2,1.8996425E-2,-1.8654823E-2,-3.6147851E-3,-9.952702E-3,3.042081E-2,2.158144E-2,-9.562875E-3],"categories":[],"categories_nodes":[],"categories_segments":[],"categories_sizes":[],"default_left":[0,0,0,0,0,0,0,0,0,0,0,0,0,0,0,0,0,0,0,0,0,0,0,0,0,0,0,0,0,0,0],"id":37,"left_children":[1,3,5,7,9,11,13,15,17,19,21,23,25,27,29,-1,-1,-1,-1,-1,-1,-1,-1,-1,-1,-1,-1,-1,-1,-1,-1],"loss_changes":[4.5098774E1,5.429267E0,1.6834743E1,5.4457283E0,6.738302E0,1.0171818E1,7.861365E0,5.1627345E0,4.944533E0,6.5566263E0,1.4219856E1,5.532255E0,7.8285713E0,9.567478E0,7.843809E0,0E0,0E0,0E0,0E0,0E0,0E0,0E0,0E0,0E0,0E0,0E0,0E0,0E0,0E0,0E0,0E0],"parents":[2147483647,0,0,1,1,2,2,3,3,4,4,5,5,6,6,7,7,8,8,9,9,10,10,11,11,12,12,13,13,14,14],"right_children":[2,4,6,8,10,12,14,16,18,20,22,24,26,28,30,-1,-1,-1,-1,-1,-1,-1,-1,-1,-1,-1,-1,-1,-1,-1,-1],"split_conditions":[3.1104803E-1,2.1015687E0,9.0947574E-1,1.6582862E0,1.4808176E0,-1.5358018E0,-7.7401906E-1,-1.7209771E0,2.8961095E-1,1.7091502E0,3.7013444E-1,1.6008328E0,1.3094925E0,-1.6466226E-1,-1.2616488E0,5.0386902E-2,2.8983492E-3,2.798429E-3,4.280817E-2,1.8418116E-2,-6.971433E-2,1.5157014E-2,-9.720924E-2,-5.6923162E-2,1.8996425E-2,-1.8654823E-2,-3.6147851E-3,-9.952702E-3,3.042081E-2,2.158144E-2,-9.562875E-3],"split_indices":[3,6,4,10,5,8,2,8,9,8,11,2,12,5,5,0,0,0,0,0,0,0,0,0,0,0,0,0,0,0,0],"split_type":[0,0,0,0,0,0,0,0,0,0,0,0,0,0,0,0,0,0,0,0,0,0,0,0,0,0,0,0,0,0,0],"sum_hessian":[2.1212615E3,1.4267211E3,6.9454047E2,1.284271E3,1.4245004E2,4.6305365E2,2.3148682E2,1.2539246E3,3.0346523E1,1.3124799E2,1.12020445E1,2.2143515E1,4.4091013E2,6.1028717E1,1.704581E2,4.75391E0,1.2491707E3,1.4627325E1,1.5719197E1,1.3006451E2,1.183475E0,8.037582E0,3.1644626E0,1.9916637E1,2.2268775E0,3.2196255E2,1.18947556E2,2.2817297E1,3.8211422E1,2.2429066E1,1.4802902E2],"tree_param":{"num_deleted":"0","num_feature":"16029","num_nodes":"31","size_leaf_vector":"1"}},{"base_weights":[-5.854011E-3,9.304312E-2,-1.7526644E-1,5.748093E-2,2.492118E-1,-2.6394573E-1,-1.3173654E-2,2.3221591E-1,2.5549233E-2,3.27496E-1,-2.1411952E-1,1.9794838E-1,-2.981143E-1,1.051581E-2,-8.9709204E-1,-1.1939908E-2,1.6603721E-2,8.292875E-3,-1.7989103E-3,-3.14292E-2,1.792702E-2,-7.698295E-2,-2.0624227E-3,-6.921419E-3,5.4488983E-2,-1.6626239E-2,1.4253913E-2,-4.7024813E-2,1.2682278E-3,-6.378368E-2,-3.6520266E-4],"categories":[],"categories_nodes":[],"categories_segments":[],"categories_sizes":[],"default_left":[0,0,0,0,0,0,0,0,0,0,0,0,0,0,0,0,0,0,0,0,0,0,0,0,0,0,0,0,0,0,0],"id":38,"left_children":[1,3,5,7,9,11,13,15,17,19,21,23,25,27,29,-1,-1,-1,-1,-1,-1,-1,-1,-1,-1,-1,-1,-1,-1,-1,-1],"loss_changes":[3.548997E1,7.413827E0,1.1219379E1,6.0799003E0,9.0575485E0,8.022915E0,5.8128057E0,8.000115E0,7.976887E0,6.528513E0,8.281731E0,1.0758057E1,9.531799E0,3.8493729E0,2.431363E0,0E0,0E0,0E0,0E0,0E0,0E0,0E0,0E0,0E0,0E0,0E0,0E0,0E0,0E0,0E0,0E0],"parents":[2147483647,0,0,1,1,2,2,3,3,4,4,5,5,6,6,7,7,8,8,9,9,10,10,11,11,12,12,13,13,14,14],"right_children":[2,4,6,8,10,12,14,16,18,20,22,24,26,28,30,-1,-1,-1,-1,-1,-1,-1,-1,-1,-1,-1,-1,-1,-1,-1,-1],"split_conditions":[1.5895095E-1,1.0988479E0,8.463517E-1,-1.2009897E0,1.2324371E0,-1.5100803E0,1.6408712E0,-1.2998664E0,-7.713898E-1,-1.6619024E0,-1.3638767E0,9.547879E-1,1.667247E0,-1.6893954E0,1.1151553E0,-1.1939908E-2,1.6603721E-2,8.292875E-3,-1.7989103E-3,-3.14292E-2,1.792702E-2,-7.698295E-2,-2.0624227E-3,-6.921419E-3,5.4488983E-2,-1.6626239E-2,1.4253913E-2,-4.7024813E-2,1.2682278E-3,-6.378368E-2,-3.6520266E-4],"split_indices":[3,4,4,10,8,1,14,4,1,10,0,10,3,10,5,0,0,0,0,0,0,0,0,0,0,0,0,0,0,0,0],"split_type":[0,0,0,0,0,0,0,0,0,0,0,0,0,0,0,0,0,0,0,0,0,0,0,0,0,0,0,0,0,0,0],"sum_hessian":[2.1162742E3,1.3365142E3,7.7976E2,1.0897322E3,2.4678192E2,5.036112E2,2.761488E2,1.6740346E2,9.223288E2,2.1136328E2,3.5418648E1,3.4358356E1,4.6925287E2,2.6990335E2,6.2454443E0,2.9039265E1,1.383642E2,2.8064508E2,6.416837E2,6.041902E0,2.0532138E2,3.1740777E0,3.2244568E1,2.556184E1,8.796514E0,4.4351376E2,2.57391E1,3.1910174E0,2.6671234E2,4.0770736E0,2.168371E0],"tree_param":{"num_deleted":"0","num_feature":"16029","num_nodes":"31","size_leaf_vector":"1"}},{"base_weights":[-3.4140337E-3,6.879945E-2,-1.5039398E-1,1.5598348E-2,2.012731E-1,-2.4509853E-1,7.945142E-2,2.8341077E-2,-5.09391E-1,2.5096118E-1,-9.897176E-2,-8.432495E-1,-2.1606824E-1,2.8746626E-1,-1.0203945E-1,1.6156334E-2,2.0489418E-4,-4.2488426E-2,5.437651E-2,1.8350115E-2,6.7125126E-3,-8.772839E-2,-7.6600845E-4,4.545897E-2,-4.9662117E-2,-2.6936734E-2,-8.495241E-3,-3.2783292E-2,2.0942122E-2,-1.8120544E-3,-5.9829246E-2],"categories":[],"categories_nodes":[],"categories_segments":[],"categories_sizes":[],"default_left":[0,0,0,0,0,0,0,0,0,0,0,0,0,0,0,0,0,0,0,0,0,0,0,0,0,0,0,0,0,0,0],"id":39,"left_children":[1,3,5,7,9,11,13,15,17,19,21,23,25,27,29,-1,-1,-1,-1,-1,-1,-1,-1,-1,-1,-1,-1,-1,-1,-1,-1],"loss_changes":[2.2368385E1,9.956621E0,1.5132488E1,6.766786E0,6.0643864E0,8.360144E0,7.706459E0,7.0478783E0,1.3953979E1,4.6588116E0,8.033533E0,6.797756E0,6.916998E0,1.2047394E1,7.831087E0,0E0,0E0,0E0,0E0,0E0,0E0,0E0,0E0,0E0,0E0,0E0,0E0,0E0,0E0,0E0,0E0],"parents":[2147483647,0,0,1,1,2,2,3,3,4,4,5,5,6,6,7,7,8,8,9,9,10,10,11,11,12,12,13,13,14,14],"right_children":[2,4,6,8,10,12,14,16,18,20,22,24,26,28,30,-1,-1,-1,-1,-1,-1,-1,-1,-1,-1,-1,-1,-1,-1,-1,-1],"split_conditions":[3.1104803E-1,7.8322756E-1,1.0357238E0,7.201035E-1,1E0,-1.5510534E0,-4.3295376E-2,-1.458148E0,1.1462826E0,-7.706879E-2,-1.5284647E0,-1.4349157E0,-1.2532524E0,-1.1507598E0,1.5603304E0,1.6156334E-2,2.0489418E-4,-4.2488426E-2,5.437651E-2,1.8350115E-2,6.7125126E-3,-8.772839E-2,-7.6600845E-4,4.545897E-2,-4.9662117E-2,-2.6936734E-2,-8.495241E-3,-3.2783292E-2,2.0942122E-2,-1.8120544E-3,-5.9829246E-2],"split_indices":[3,4,4,4,16022,11,2,1,1,11,14,0,8,0,8,0,0,0,0,0,0,0,0,0,0,0,0,0,0,0,0],"split_type":[0,0,0,0,0,0,0,0,0,0,0,0,0,0,0,0,0,0,0,0,0,0,0,0,0,0,0,0,0,0,0],"sum_hessian":[2.1054797E3,1.4121841E3,6.9329565E2,1.0083505E3,4.038335E2,4.909431E2,2.0235252E2,9.853791E2,2.2971457E1,3.4663272E2,5.720077E1,2.1426025E1,4.695171E2,9.401444E1,1.0833809E2,7.39427E1,9.114364E2,1.9321108E1,3.6503482E0,1.7273979E2,1.7389293E2,1.7904407E0,5.5410328E1,1.2902313E0,2.0135794E1,5.7430107E1,4.1208698E2,1.1006867E1,8.3007576E1,1.03169205E2,5.168883E0],"tree_param":{"num_deleted":"0","num_feature":"16029","num_nodes":"31","size_leaf_vector":"1"}},{"base_weights":[1.0453356E-2,1.06020644E-1,-1.2062661E-1,1.4191759E-1,-9.9025436E-2,-2.0156504E-1,4.4129223E-2,-9.007121E-3,1.8719944E-1,7.2418356E-1,-1.5408626E-1,2.9080513E-1,-2.4020444E-1,-1.5538265E-2,4.111415E-1,3.9885594E-3,-3.2924555E-2,9.728987E-3,-3.940924E-2,6.774369E-2,4.4718757E-3,4.739409E-3,-1.6499035E-2,-1.7527618E-2,3.0571297E-2,-2.620332E-2,-8.503179E-3,2.1896325E-3,-2.0024944E-2,-1.2863177E-2,3.2831527E-2],"categories":[],"categories_nodes":[],"categories_segments":[],"categories_sizes":[],"default_left":[0,0,0,0,0,0,0,0,0,0,0,0,0,0,0,0,0,0,0,0,0,0,0,0,0,0,0,0,0,0,0],"id":40,"left_children":[1,3,5,7,9,11,13,15,17,19,21,23,25,27,29,-1,-1,-1,-1,-1,-1,-1,-1,-1,-1,-1,-1,-1,-1,-1,-1],"loss_changes":[2.658721E1,9.048496E0,1.1943269E1,7.1431103E0,8.427022E0,1.1490793E1,6.480633E0,1.4013031E1,5.9399376E0,4.5533524E0,7.594804E0,9.289907E0,1.1004532E1,5.847814E0,6.9587812E0,0E0,0E0,0E0,0E0,0E0,0E0,0E0,0E0,0E0,0E0,0E0,0E0,0E0,0E0,0E0,0E0],"parents":[2147483647,0,0,1,1,2,2,3,3,4,4,5,5,6,6,7,7,8,8,9,9,10,10,11,11,12,12,13,13,14,14],"right_children":[2,4,6,8,10,12,14,16,18,20,22,24,26,28,30,-1,-1,-1,-1,-1,-1,-1,-1,-1,-1,-1,-1,-1,-1,-1,-1],"split_conditions":[-5.820882E-3,1.2979865E0,9.0947574E-1,-1.3113209E0,-1.5808903E0,-1.5100803E0,1.2927905E0,1E0,3.335999E0,-1.197248E0,-2.2725359E-1,-4.0683007E-1,-8.4454435E-1,1E0,-6.5348727E-1,3.9885594E-3,-3.2924555E-2,9.728987E-3,-3.940924E-2,6.774369E-2,4.4718757E-3,4.739409E-3,-1.6499035E-2,-1.7527618E-2,3.0571297E-2,-2.620332E-2,-8.503179E-3,2.1896325E-3,-2.0024944E-2,-1.2863177E-2,3.2831527E-2],"split_indices":[3,5,4,3,11,1,10,16024,7,3,0,14,1,16026,0,0,0,0,0,0,0,0,0,0,0,0,0,0,0,0,0],"split_type":[0,0,0,0,0,0,0,0,0,0,0,0,0,0,0,0,0,0,0,0,0,0,0,0,0,0,0,0,0,0,0],"sum_hessian":[2.120379E3,1.226418E3,8.93961E2,1.0439618E3,1.824561E2,5.993159E2,2.946451E2,2.4111731E2,8.0284454E2,1.06767435E1,1.7177936E2,4.3134888E1,5.56181E2,2.5426526E2,4.0379833E1,2.128939E2,2.8223404E1,7.9760986E2,5.234644E0,4.7864075E0,5.890336E0,7.132382E1,1.00455536E2,1.4345449E1,2.8789436E1,1.0891746E2,4.4726355E2,2.2107845E2,3.318682E1,1.0833893E1,2.954594E1],"tree_param":{"num_deleted":"0","num_feature":"16029","num_nodes":"31","size_leaf_vector":"1"}},{"base_weights":[-1.0181011E-2,7.2788276E-2,-1.8076223E-1,2.4695398E-2,2.0507725E-1,-2.9409114E-1,1.2960704E-2,-1.0563867E0,3.0038284E-2,2.6684317E-1,-1.1372012E-1,-2.3806949E-1,-6.4632034E-1,4.027522E-2,-1.0615182E0,-8.553418E-2,2.816082E-2,8.311391E-3,-4.3928795E-4,7.7101127E-3,2.1293927E-2,7.7199596E-3,-3.22922E-2,-3.3449784E-2,-8.897049E-3,-4.9575556E-2,-1.3935839E-2,9.927649E-3,-6.1073364E-3,3.0072694E-4,-6.422191E-2],"categories":[],"categories_nodes":[],"categories_segments":[],"categories_sizes":[],"default_left":[0,0,0,0,0,0,0,0,0,0,0,0,0,0,0,0,0,0,0,0,0,0,0,0,0,0,0,0,0,0,0],"id":41,"left_children":[1,3,5,7,9,11,13,15,17,19,21,23,25,27,29,-1,-1,-1,-1,-1,-1,-1,-1,-1,-1,-1,-1,-1,-1,-1,-1],"loss_changes":[2.9972448E1,9.060013E0,1.52176E1,6.074065E0,7.5079403E0,8.474098E0,7.5773406E0,6.4444556E0,5.5105395E0,5.6383877E0,8.993247E0,9.6967945E0,7.2633324E0,6.4852324E0,1.531003E0,0E0,0E0,0E0,0E0,0E0,0E0,0E0,0E0,0E0,0E0,0E0,0E0,0E0,0E0,0E0,0E0],"parents":[2147483647,0,0,1,1,2,2,3,3,4,4,5,5,6,6,7,7,8,8,9,9,10,10,11,11,12,12,13,13,14,14],"right_children":[2,4,6,8,10,12,14,16,18,20,22,24,26,28,30,-1,-1,-1,-1,-1,-1,-1,-1,-1,-1,-1,-1,-1,-1,-1,-1],"split_conditions":[3.1104803E-1,8.463517E-1,8.463517E-1,-6.8592315E0,1.6038404E0,1E0,1.6408712E0,-5.423777E-1,-1.0095408E0,6.978324E-1,4.919552E-1,-1.2532524E0,2.8961095E-1,1E0,-1.3638767E0,-8.553418E-2,2.816082E-2,8.311391E-3,-4.3928795E-4,7.7101127E-3,2.1293927E-2,7.7199596E-3,-3.22922E-2,-3.3449784E-2,-8.897049E-3,-4.9575556E-2,-1.3935839E-2,9.927649E-3,-6.1073364E-3,3.0072694E-4,-6.422191E-2],"split_indices":[3,4,4,7,4,16027,14,4,1,6,8,8,9,16015,0,0,0,0,0,0,0,0,0,0,0,0,0,0,0,0,0],"split_type":[0,0,0,0,0,0,0,0,0,0,0,0,0,0,0,0,0,0,0,0,0,0,0,0,0,0,0,0,0,0,0],"sum_hessian":[2.1158152E3,1.423843E3,6.919721E2,1.0450925E3,3.7875055E2,4.362472E2,2.5572493E2,4.1721845E0,1.0409203E3,3.1741537E2,6.1335197E1,3.778297E2,5.8417477E1,2.5032393E2,5.401012E0,2.9316165E0,1.240568E0,2.3018404E2,8.1073627E2,1.8696333E2,1.3045203E2,4.1257015E1,2.007818E1,4.5024464E1,3.3280527E2,2.9251867E1,2.9165611E1,1.2666669E2,1.23657234E2,1.101086E0,4.299926E0],"tree_param":{"num_deleted":"0","num_feature":"16029","num_nodes":"31","size_leaf_vector":"1"}},{"base_weights":[-2.2248062E-3,6.830472E-2,-1.4785336E-1,5.8619715E-2,6.825755E-1,-3.6488357E-1,-7.19287E-2,3.1196305E-1,3.872639E-2,-3.812799E-2,8.3501077E-1,-1.3230228E-1,-6.01437E-1,-1.488973E-1,1.3487858E-1,1.8547183E-2,-5.2378137E-2,6.3785765E-4,1.0223896E-2,4.677942E-2,-2.0362202E-2,-1.5232349E-2,3.4620583E-2,-3.643797E-2,-2.201943E-4,-4.6738246E-3,-2.2495547E-2,3.4167837E-2,-7.187461E-4],"categories":[],"categories_nodes":[],"categories_segments":[],"categories_sizes":[],"default_left":[0,0,0,0,0,0,0,0,0,0,0,0,0,0,0,0,0,0,0,0,0,0,0,0,0,0,0,0,0],"id":42,"left_children":[1,3,5,7,9,11,13,15,17,-1,19,21,23,25,27,-1,-1,-1,-1,-1,-1,-1,-1,-1,-1,-1,-1,-1,-1],"loss_changes":[2.1681292E1,8.420735E0,1.1323005E1,7.049655E0,5.478878E0,9.727795E0,8.161907E0,8.557344E0,5.594495E0,0E0,2.9249468E0,1.3168761E1,6.69318E0,6.1844616E0,1.1409795E1,0E0,0E0,0E0,0E0,0E0,0E0,0E0,0E0,0E0,0E0,0E0,0E0,0E0,0E0],"parents":[2147483647,0,0,1,1,2,2,3,3,4,4,5,5,6,6,7,7,8,8,10,10,11,11,12,12,13,13,14,14],"right_children":[2,4,6,8,10,12,14,16,18,-1,20,22,24,26,28,-1,-1,-1,-1,-1,-1,-1,-1,-1,-1,-1,-1,-1,-1],"split_conditions":[3.1104803E-1,3.5053048E0,-7.313782E-1,-1.4816366E0,-1.2608274E0,4.7787767E-2,8.0382E-1,1.5795846E0,1.276628E0,-3.812799E-2,1.235471E0,1E0,1.101975E0,1.1363094E0,-9.9536353E-1,1.8547183E-2,-5.2378137E-2,6.3785765E-4,1.0223896E-2,4.677942E-2,-2.0362202E-2,-1.5232349E-2,3.4620583E-2,-3.643797E-2,-2.201943E-4,-4.6738246E-3,-2.2495547E-2,3.4167837E-2,-7.187461E-4],"split_indices":[3,6,8,1,10,14,11,14,14,0,2,16024,1,14,14,0,0,0,0,0,0,0,0,0,0,0,0,0,0],"split_type":[0,0,0,0,0,0,0,0,0,0,0,0,0,0,0,0,0,0,0,0,0,0,0,0,0,0,0,0,0],"sum_hessian":[2.1089167E3,1.4211627E3,6.877539E2,1.400182E3,2.0980762E1,1.7725775E2,5.1049615E2,1.0087303E2,1.299309E3,1.620012E0,1.936075E1,9.016554E1,8.709222E1,3.7223822E2,1.3825793E2,9.737571E1,3.4973204E0,1.1242441E3,1.7506477E2,1.8139011E1,1.2217399E0,7.5101746E1,1.5063792E1,7.1601875E1,1.5490338E1,3.154669E2,5.677132E1,2.880961E1,1.0944832E2],"tree_param":{"num_deleted":"0","num_feature":"16029","num_nodes":"29","size_leaf_vector":"1"}},{"base_weights":[1.0367962E-2,7.891905E-2,-1.10036016E-1,5.6977574E-2,2.8965884E-1,-1.9643883E-1,4.3739352E-2,7.127768E-2,-4.78391E-1,3.905559E-1,-7.187282E-1,-1.2654297E-1,-3.5446554E-1,-2.3689516E-2,4.5140028E-1,3.8975317E-3,-3.9186895E-2,5.1694224E-3,-6.1421193E-2,2.5457356E-2,-1.0768952E-2,-6.1544552E-3,-9.795144E-2,-3.030787E-3,-2.1901183E-2,-5.770349E-3,-2.6196381E-2,9.4795854E-5,-4.8601698E-2,3.979915E-2,-8.683689E-3],"categories":[],"categories_nodes":[],"categories_segments":[],"categories_sizes":[],"default_left":[0,0,0,0,0,0,0,0,0,0,0,0,0,0,0,0,0,0,0,0,0,0,0,0,0,0,0,0,0,0,0],"id":43,"left_children":[1,3,5,7,9,11,13,15,17,19,21,23,25,27,29,-1,-1,-1,-1,-1,-1,-1,-1,-1,-1,-1,-1,-1,-1,-1,-1],"loss_changes":[1.7432146E1,6.2059536E0,1.0189499E1,9.3745985E0,1.3166781E1,5.376007E0,7.610418E0,6.845938E0,1.403375E1,8.4295025E0,8.529585E0,6.992943E0,6.0142E0,5.781088E0,8.6007595E0,0E0,0E0,0E0,0E0,0E0,0E0,0E0,0E0,0E0,0E0,0E0,0E0,0E0,0E0,0E0,0E0],"parents":[2147483647,0,0,1,1,2,2,3,3,4,4,5,5,6,6,7,7,8,8,9,9,10,10,11,11,12,12,13,13,14,14],"right_children":[2,4,6,8,10,12,14,16,18,20,22,24,26,28,30,-1,-1,-1,-1,-1,-1,-1,-1,-1,-1,-1,-1,-1,-1,-1,-1],"split_conditions":[1.5895095E-1,1.4104956E0,8.463517E-1,1.3171558E0,1.3332216E0,2.5738837E-2,1.2927905E0,3.335999E0,1E0,1E0,1.1935253E0,1.7440795E0,-2.7592984E-1,1.6253209E0,4.804508E-2,3.8975317E-3,-3.9186895E-2,5.1694224E-3,-6.1421193E-2,2.5457356E-2,-1.0768952E-2,-6.1544552E-3,-9.795144E-2,-3.030787E-3,-2.1901183E-2,-5.770349E-3,-2.6196381E-2,9.4795854E-5,-4.8601698E-2,3.979915E-2,-8.683689E-3],"split_indices":[3,1,4,1,10,4,10,7,16015,16020,0,13,10,14,2,0,0,0,0,0,0,0,0,0,0,0,0,0,0,0,0],"split_type":[0,0,0,0,0,0,0,0,0,0,0,0,0,0,0,0,0,0,0,0,0,0,0,0,0,0,0,0,0,0,0],"sum_hessian":[2.1099565E3,1.344704E3,7.6525244E2,1.2190511E3,1.25652885E2,4.8977936E2,2.754731E2,1.1881808E3,3.0870354E1,1.1478085E2,1.0872033E1,3.4082974E2,1.4894962E2,2.3718379E2,3.828933E1,1.1798812E3,8.29953E0,1.7870705E1,1.299965E1,9.612699E1,1.8653864E1,8.0874E0,2.784633E0,2.8227805E2,5.8551674E1,6.248443E1,8.646519E1,2.3192468E2,5.259107E0,2.450636E1,1.3782971E1],"tree_param":{"num_deleted":"0","num_feature":"16029","num_nodes":"31","size_leaf_vector":"1"}},{"base_weights":[2.8231323E-3,7.024351E-2,-1.06853E-1,1.880083E-2,1.9306214E-1,-1.7815042E-1,2.078621E-2,-1.4730598E-1,9.4635285E-2,-1.3385713E0,2.0923783E-1,-1.8855089E-1,9.7920007E-1,-5.9177943E-2,3.3100176E-1,-2.1463962E-2,-5.491193E-4,1.458463E-2,1.0337397E-3,-1.9158771E-2,-8.042381E-2,6.511076E-3,2.5078386E-2,-2.4477186E-4,-1.2571744E-2,7.252776E-2,-3.8307428E-3,-1.716448E-2,3.839237E-3,3.063002E-2,-1.1652373E-2],"categories":[],"categories_nodes":[],"categories_segments":[],"categories_sizes":[],"default_left":[0,0,0,0,0,0,0,0,0,0,0,0,0,0,0,0,0,0,0,0,0,0,0,0,0,0,0,0,0,0,0],"id":44,"left_children":[1,3,5,7,9,11,13,15,17,19,21,23,25,27,29,-1,-1,-1,-1,-1,-1,-1,-1,-1,-1,-1,-1,-1,-1,-1,-1],"loss_changes":[1.55706E1,8.235542E0,7.2990627E0,1.16053505E1,9.814937E0,6.3771E0,7.1688023E0,1.1097418E1,9.210564E0,4.5566654E-1,8.751446E0,5.8969574E0,2.4717522E0,8.910429E0,9.5484705E0,0E0,0E0,0E0,0E0,0E0,0E0,0E0,0E0,0E0,0E0,0E0,0E0,0E0,0E0,0E0,0E0],"parents":[2147483647,0,0,1,1,2,2,3,3,4,4,5,5,6,6,7,7,8,8,9,9,10,10,11,11,12,12,13,13,14,14],"right_children":[2,4,6,8,10,12,14,16,18,20,22,24,26,28,